=== Run information ===

Scheme:       weka.classifiers.trees.J48 -C 0.25 -M 2
Relation:     finalWeka-weka.filters.unsupervised.attribute.Reorder-R1,2,3,4,5,6,7,8,9,10,11,12,13,14,15,16,17,18,19,20,21,22,23,24,25,26,27,28,29,30,31,32,34,33-weka.filters.unsupervised.attribute.InterquartileRange-Rfirst-last-O3.0-E6.0-weka.filters.unsupervised.instance.RemoveWithValues-S0.0-C35-Llast-weka.filters.unsupervised.instance.RemoveWithValues-S0.0-C36-Llast-weka.filters.unsupervised.attribute.Discretize-B3-M-1.0-Rfirst-last-precision0-weka.filters.unsupervised.attribute.Remove-R2,35-36-weka.filters.supervised.instance.SMOTE-C0-K5-P100.0-S123-weka.filters.supervised.instance.SpreadSubsample-M1.0-X0.0-S123-weka.filters.unsupervised.attribute.Remove-V-R7,3,2,8,25,15-16,23,30,17,4-5,31,29,11,33
Instances:    269068
Attributes:   16
              FAMI_TIENEINTERNET
              FAMI_EDUCACIONMADRE
              FAMI_EDUCACIONPADRE
              FAMI_TIENECOMPUTADOR
              COLE_NATURALEZA
              FAMI_NUMLIBROS
              FAMI_COMELECHEDERIVADOS
              ESTU_DEDICACIONINTERNET
              COLE_JORNADA
              FAMI_COMECARNEPESCADOHUEVO
              FAMI_ESTRATOVIVIENDA
              FAMI_PERSONASHOGAR
              COLE_DEPTO_UBICACION
              COLE_AREA_UBICACION
              FAMI_TIENESERVICIOTV
              RENDIMIENTO
Test mode:    split 66.0% train, remainder test

=== Classifier model (full training set) ===

J48 pruned tree
------------------

COLE_NATURALEZA = OFICIAL
|   FAMI_TIENEINTERNET = No
|   |   COLE_JORNADA = MANANA
|   |   |   COLE_AREA_UBICACION = URBANO
|   |   |   |   FAMI_EDUCACIONMADRE = Bachillerato
|   |   |   |   |   FAMI_ESTRATOVIVIENDA = Estrato 1
|   |   |   |   |   |   FAMI_COMELECHEDERIVADOS = 1 o 2 veces por semana
|   |   |   |   |   |   |   COLE_DEPTO_UBICACION = BOLIVAR
|   |   |   |   |   |   |   |   FAMI_EDUCACIONPADRE = Primaria
|   |   |   |   |   |   |   |   |   ESTU_DEDICACIONINTERNET = Entre 1 y 3 horas
|   |   |   |   |   |   |   |   |   |   FAMI_NUMLIBROS = 11 A 25 LIBROS
|   |   |   |   |   |   |   |   |   |   |   FAMI_COMECARNEPESCADOHUEVO = 1 o 2 veces por semana
|   |   |   |   |   |   |   |   |   |   |   |   FAMI_PERSONASHOGAR = 3 a 4: Minimo o insuficiente (3.0)
|   |   |   |   |   |   |   |   |   |   |   |   FAMI_PERSONASHOGAR = 5 a 6: Satisfactorio o avanzado (4.0/1.0)
|   |   |   |   |   |   |   |   |   |   |   |   FAMI_PERSONASHOGAR = 7 o mas: Minimo o insuficiente (1.0)
|   |   |   |   |   |   |   |   |   |   |   |   FAMI_PERSONASHOGAR = 1 a 2: Minimo o insuficiente (0.0)
|   |   |   |   |   |   |   |   |   |   |   FAMI_COMECARNEPESCADOHUEVO = 3 a 5 veces por semana: Satisfactorio o avanzado (5.0/1.0)
|   |   |   |   |   |   |   |   |   |   |   FAMI_COMECARNEPESCADOHUEVO = Todos o casi todos los dias: Minimo o insuficiente (3.0)
|   |   |   |   |   |   |   |   |   |   |   FAMI_COMECARNEPESCADOHUEVO = Nunca o rara vez comemos eso: Minimo o insuficiente (1.0)
|   |   |   |   |   |   |   |   |   |   FAMI_NUMLIBROS = 26 A 100 LIBROS: Satisfactorio o avanzado (11.0/3.0)
|   |   |   |   |   |   |   |   |   |   FAMI_NUMLIBROS = 0 A 10 LIBROS
|   |   |   |   |   |   |   |   |   |   |   FAMI_COMECARNEPESCADOHUEVO = 1 o 2 veces por semana
|   |   |   |   |   |   |   |   |   |   |   |   FAMI_TIENESERVICIOTV = Si: Satisfactorio o avanzado (7.0/1.0)
|   |   |   |   |   |   |   |   |   |   |   |   FAMI_TIENESERVICIOTV = No
|   |   |   |   |   |   |   |   |   |   |   |   |   FAMI_PERSONASHOGAR = 3 a 4: Minimo o insuficiente (0.0)
|   |   |   |   |   |   |   |   |   |   |   |   |   FAMI_PERSONASHOGAR = 5 a 6: Minimo o insuficiente (3.0)
|   |   |   |   |   |   |   |   |   |   |   |   |   FAMI_PERSONASHOGAR = 7 o mas: Satisfactorio o avanzado (2.0)
|   |   |   |   |   |   |   |   |   |   |   |   |   FAMI_PERSONASHOGAR = 1 a 2: Minimo o insuficiente (0.0)
|   |   |   |   |   |   |   |   |   |   |   FAMI_COMECARNEPESCADOHUEVO = 3 a 5 veces por semana: Minimo o insuficiente (7.0/1.0)
|   |   |   |   |   |   |   |   |   |   |   FAMI_COMECARNEPESCADOHUEVO = Todos o casi todos los dias: Satisfactorio o avanzado (7.0/3.0)
|   |   |   |   |   |   |   |   |   |   |   FAMI_COMECARNEPESCADOHUEVO = Nunca o rara vez comemos eso: Minimo o insuficiente (0.0)
|   |   |   |   |   |   |   |   |   |   FAMI_NUMLIBROS = MAS DE 100 LIBROS: Minimo o insuficiente (2.0/1.0)
|   |   |   |   |   |   |   |   |   ESTU_DEDICACIONINTERNET = Hasta 1 hora
|   |   |   |   |   |   |   |   |   |   FAMI_COMECARNEPESCADOHUEVO = 1 o 2 veces por semana
|   |   |   |   |   |   |   |   |   |   |   FAMI_TIENECOMPUTADOR = No: Minimo o insuficiente (72.0/22.0)
|   |   |   |   |   |   |   |   |   |   |   FAMI_TIENECOMPUTADOR = Si
|   |   |   |   |   |   |   |   |   |   |   |   FAMI_PERSONASHOGAR = 3 a 4: Minimo o insuficiente (3.0/1.0)
|   |   |   |   |   |   |   |   |   |   |   |   FAMI_PERSONASHOGAR = 5 a 6: Satisfactorio o avanzado (8.0/2.0)
|   |   |   |   |   |   |   |   |   |   |   |   FAMI_PERSONASHOGAR = 7 o mas: Satisfactorio o avanzado (0.0)
|   |   |   |   |   |   |   |   |   |   |   |   FAMI_PERSONASHOGAR = 1 a 2: Satisfactorio o avanzado (0.0)
|   |   |   |   |   |   |   |   |   |   FAMI_COMECARNEPESCADOHUEVO = 3 a 5 veces por semana
|   |   |   |   |   |   |   |   |   |   |   FAMI_TIENESERVICIOTV = Si
|   |   |   |   |   |   |   |   |   |   |   |   FAMI_PERSONASHOGAR = 3 a 4: Satisfactorio o avanzado (30.0/13.0)
|   |   |   |   |   |   |   |   |   |   |   |   FAMI_PERSONASHOGAR = 5 a 6: Minimo o insuficiente (20.0/6.0)
|   |   |   |   |   |   |   |   |   |   |   |   FAMI_PERSONASHOGAR = 7 o mas: Minimo o insuficiente (8.0/3.0)
|   |   |   |   |   |   |   |   |   |   |   |   FAMI_PERSONASHOGAR = 1 a 2: Minimo o insuficiente (0.0)
|   |   |   |   |   |   |   |   |   |   |   FAMI_TIENESERVICIOTV = No: Satisfactorio o avanzado (33.0/9.0)
|   |   |   |   |   |   |   |   |   |   FAMI_COMECARNEPESCADOHUEVO = Todos o casi todos los dias
|   |   |   |   |   |   |   |   |   |   |   FAMI_TIENESERVICIOTV = Si: Satisfactorio o avanzado (17.0/4.0)
|   |   |   |   |   |   |   |   |   |   |   FAMI_TIENESERVICIOTV = No: Minimo o insuficiente (12.0/4.0)
|   |   |   |   |   |   |   |   |   |   FAMI_COMECARNEPESCADOHUEVO = Nunca o rara vez comemos eso: Minimo o insuficiente (4.0/1.0)
|   |   |   |   |   |   |   |   |   ESTU_DEDICACIONINTERNET = Mas de 3 horas: Minimo o insuficiente (22.0/4.0)
|   |   |   |   |   |   |   |   |   ESTU_DEDICACIONINTERNET = No Navega Internet: Minimo o insuficiente (15.0/6.0)
|   |   |   |   |   |   |   |   FAMI_EDUCACIONPADRE = Profesional
|   |   |   |   |   |   |   |   |   FAMI_NUMLIBROS = 11 A 25 LIBROS: Satisfactorio o avanzado (16.0/3.0)
|   |   |   |   |   |   |   |   |   FAMI_NUMLIBROS = 26 A 100 LIBROS: Satisfactorio o avanzado (15.0/1.0)
|   |   |   |   |   |   |   |   |   FAMI_NUMLIBROS = 0 A 10 LIBROS
|   |   |   |   |   |   |   |   |   |   FAMI_TIENESERVICIOTV = Si: Satisfactorio o avanzado (9.0/3.0)
|   |   |   |   |   |   |   |   |   |   FAMI_TIENESERVICIOTV = No: Minimo o insuficiente (7.0)
|   |   |   |   |   |   |   |   |   FAMI_NUMLIBROS = MAS DE 100 LIBROS: Minimo o insuficiente (3.0/1.0)
|   |   |   |   |   |   |   |   FAMI_EDUCACIONPADRE = Bachillerato
|   |   |   |   |   |   |   |   |   FAMI_PERSONASHOGAR = 3 a 4
|   |   |   |   |   |   |   |   |   |   FAMI_NUMLIBROS = 11 A 25 LIBROS
|   |   |   |   |   |   |   |   |   |   |   FAMI_TIENESERVICIOTV = Si
|   |   |   |   |   |   |   |   |   |   |   |   ESTU_DEDICACIONINTERNET = Entre 1 y 3 horas: Minimo o insuficiente (11.0/3.0)
|   |   |   |   |   |   |   |   |   |   |   |   ESTU_DEDICACIONINTERNET = Hasta 1 hora
|   |   |   |   |   |   |   |   |   |   |   |   |   FAMI_TIENECOMPUTADOR = No: Satisfactorio o avanzado (16.0/5.0)
|   |   |   |   |   |   |   |   |   |   |   |   |   FAMI_TIENECOMPUTADOR = Si: Minimo o insuficiente (7.0/1.0)
|   |   |   |   |   |   |   |   |   |   |   |   ESTU_DEDICACIONINTERNET = Mas de 3 horas: Minimo o insuficiente (1.0)
|   |   |   |   |   |   |   |   |   |   |   |   ESTU_DEDICACIONINTERNET = No Navega Internet: Satisfactorio o avanzado (1.0)
|   |   |   |   |   |   |   |   |   |   |   FAMI_TIENESERVICIOTV = No: Satisfactorio o avanzado (30.0/8.0)
|   |   |   |   |   |   |   |   |   |   FAMI_NUMLIBROS = 26 A 100 LIBROS
|   |   |   |   |   |   |   |   |   |   |   FAMI_TIENECOMPUTADOR = No: Satisfactorio o avanzado (29.0/10.0)
|   |   |   |   |   |   |   |   |   |   |   FAMI_TIENECOMPUTADOR = Si: Minimo o insuficiente (4.0)
|   |   |   |   |   |   |   |   |   |   FAMI_NUMLIBROS = 0 A 10 LIBROS
|   |   |   |   |   |   |   |   |   |   |   ESTU_DEDICACIONINTERNET = Entre 1 y 3 horas
|   |   |   |   |   |   |   |   |   |   |   |   FAMI_COMECARNEPESCADOHUEVO = 1 o 2 veces por semana: Minimo o insuficiente (5.0/1.0)
|   |   |   |   |   |   |   |   |   |   |   |   FAMI_COMECARNEPESCADOHUEVO = 3 a 5 veces por semana: Satisfactorio o avanzado (15.0/7.0)
|   |   |   |   |   |   |   |   |   |   |   |   FAMI_COMECARNEPESCADOHUEVO = Todos o casi todos los dias: Satisfactorio o avanzado (4.0/1.0)
|   |   |   |   |   |   |   |   |   |   |   |   FAMI_COMECARNEPESCADOHUEVO = Nunca o rara vez comemos eso: Minimo o insuficiente (0.0)
|   |   |   |   |   |   |   |   |   |   |   ESTU_DEDICACIONINTERNET = Hasta 1 hora
|   |   |   |   |   |   |   |   |   |   |   |   FAMI_TIENECOMPUTADOR = No
|   |   |   |   |   |   |   |   |   |   |   |   |   FAMI_COMECARNEPESCADOHUEVO = 1 o 2 veces por semana: Satisfactorio o avanzado (17.0/6.0)
|   |   |   |   |   |   |   |   |   |   |   |   |   FAMI_COMECARNEPESCADOHUEVO = 3 a 5 veces por semana: Minimo o insuficiente (18.0/6.0)
|   |   |   |   |   |   |   |   |   |   |   |   |   FAMI_COMECARNEPESCADOHUEVO = Todos o casi todos los dias: Minimo o insuficiente (4.0/1.0)
|   |   |   |   |   |   |   |   |   |   |   |   |   FAMI_COMECARNEPESCADOHUEVO = Nunca o rara vez comemos eso: Minimo o insuficiente (4.0/2.0)
|   |   |   |   |   |   |   |   |   |   |   |   FAMI_TIENECOMPUTADOR = Si
|   |   |   |   |   |   |   |   |   |   |   |   |   FAMI_COMECARNEPESCADOHUEVO = 1 o 2 veces por semana: Minimo o insuficiente (4.0)
|   |   |   |   |   |   |   |   |   |   |   |   |   FAMI_COMECARNEPESCADOHUEVO = 3 a 5 veces por semana: Satisfactorio o avanzado (11.0/1.0)
|   |   |   |   |   |   |   |   |   |   |   |   |   FAMI_COMECARNEPESCADOHUEVO = Todos o casi todos los dias: Minimo o insuficiente (1.0)
|   |   |   |   |   |   |   |   |   |   |   |   |   FAMI_COMECARNEPESCADOHUEVO = Nunca o rara vez comemos eso: Satisfactorio o avanzado (0.0)
|   |   |   |   |   |   |   |   |   |   |   ESTU_DEDICACIONINTERNET = Mas de 3 horas: Minimo o insuficiente (4.0/1.0)
|   |   |   |   |   |   |   |   |   |   |   ESTU_DEDICACIONINTERNET = No Navega Internet: Minimo o insuficiente (15.0/3.0)
|   |   |   |   |   |   |   |   |   |   FAMI_NUMLIBROS = MAS DE 100 LIBROS: Minimo o insuficiente (2.0)
|   |   |   |   |   |   |   |   |   FAMI_PERSONASHOGAR = 5 a 6
|   |   |   |   |   |   |   |   |   |   ESTU_DEDICACIONINTERNET = Entre 1 y 3 horas
|   |   |   |   |   |   |   |   |   |   |   FAMI_NUMLIBROS = 11 A 25 LIBROS
|   |   |   |   |   |   |   |   |   |   |   |   FAMI_TIENECOMPUTADOR = No: Satisfactorio o avanzado (15.0/6.0)
|   |   |   |   |   |   |   |   |   |   |   |   FAMI_TIENECOMPUTADOR = Si: Minimo o insuficiente (3.0)
|   |   |   |   |   |   |   |   |   |   |   FAMI_NUMLIBROS = 26 A 100 LIBROS: Satisfactorio o avanzado (14.0/1.0)
|   |   |   |   |   |   |   |   |   |   |   FAMI_NUMLIBROS = 0 A 10 LIBROS
|   |   |   |   |   |   |   |   |   |   |   |   FAMI_COMECARNEPESCADOHUEVO = 1 o 2 veces por semana: Satisfactorio o avanzado (8.0/2.0)
|   |   |   |   |   |   |   |   |   |   |   |   FAMI_COMECARNEPESCADOHUEVO = 3 a 5 veces por semana: Minimo o insuficiente (7.0/1.0)
|   |   |   |   |   |   |   |   |   |   |   |   FAMI_COMECARNEPESCADOHUEVO = Todos o casi todos los dias: Minimo o insuficiente (5.0/2.0)
|   |   |   |   |   |   |   |   |   |   |   |   FAMI_COMECARNEPESCADOHUEVO = Nunca o rara vez comemos eso: Minimo o insuficiente (0.0)
|   |   |   |   |   |   |   |   |   |   |   FAMI_NUMLIBROS = MAS DE 100 LIBROS: Satisfactorio o avanzado (2.0)
|   |   |   |   |   |   |   |   |   |   ESTU_DEDICACIONINTERNET = Hasta 1 hora
|   |   |   |   |   |   |   |   |   |   |   FAMI_TIENESERVICIOTV = Si: Minimo o insuficiente (72.0/23.0)
|   |   |   |   |   |   |   |   |   |   |   FAMI_TIENESERVICIOTV = No
|   |   |   |   |   |   |   |   |   |   |   |   FAMI_COMECARNEPESCADOHUEVO = 1 o 2 veces por semana: Satisfactorio o avanzado (35.0/14.0)
|   |   |   |   |   |   |   |   |   |   |   |   FAMI_COMECARNEPESCADOHUEVO = 3 a 5 veces por semana: Satisfactorio o avanzado (23.0/11.0)
|   |   |   |   |   |   |   |   |   |   |   |   FAMI_COMECARNEPESCADOHUEVO = Todos o casi todos los dias: Minimo o insuficiente (3.0)
|   |   |   |   |   |   |   |   |   |   |   |   FAMI_COMECARNEPESCADOHUEVO = Nunca o rara vez comemos eso: Satisfactorio o avanzado (0.0)
|   |   |   |   |   |   |   |   |   |   ESTU_DEDICACIONINTERNET = Mas de 3 horas: Minimo o insuficiente (10.0/1.0)
|   |   |   |   |   |   |   |   |   |   ESTU_DEDICACIONINTERNET = No Navega Internet
|   |   |   |   |   |   |   |   |   |   |   FAMI_NUMLIBROS = 11 A 25 LIBROS: Minimo o insuficiente (6.0/1.0)
|   |   |   |   |   |   |   |   |   |   |   FAMI_NUMLIBROS = 26 A 100 LIBROS
|   |   |   |   |   |   |   |   |   |   |   |   FAMI_TIENESERVICIOTV = Si: Satisfactorio o avanzado (4.0/1.0)
|   |   |   |   |   |   |   |   |   |   |   |   FAMI_TIENESERVICIOTV = No: Minimo o insuficiente (2.0)
|   |   |   |   |   |   |   |   |   |   |   FAMI_NUMLIBROS = 0 A 10 LIBROS
|   |   |   |   |   |   |   |   |   |   |   |   FAMI_TIENESERVICIOTV = Si: Satisfactorio o avanzado (3.0)
|   |   |   |   |   |   |   |   |   |   |   |   FAMI_TIENESERVICIOTV = No: Minimo o insuficiente (5.0/1.0)
|   |   |   |   |   |   |   |   |   |   |   FAMI_NUMLIBROS = MAS DE 100 LIBROS: Satisfactorio o avanzado (1.0)
|   |   |   |   |   |   |   |   |   FAMI_PERSONASHOGAR = 7 o mas: Minimo o insuficiente (55.0/14.0)
|   |   |   |   |   |   |   |   |   FAMI_PERSONASHOGAR = 1 a 2: Minimo o insuficiente (11.0/2.0)
|   |   |   |   |   |   |   |   FAMI_EDUCACIONPADRE = No aplica
|   |   |   |   |   |   |   |   |   FAMI_TIENECOMPUTADOR = No: Minimo o insuficiente (150.0/44.0)
|   |   |   |   |   |   |   |   |   FAMI_TIENECOMPUTADOR = Si
|   |   |   |   |   |   |   |   |   |   FAMI_TIENESERVICIOTV = Si: Minimo o insuficiente (25.0/8.0)
|   |   |   |   |   |   |   |   |   |   FAMI_TIENESERVICIOTV = No: Satisfactorio o avanzado (15.0/4.0)
|   |   |   |   |   |   |   |   FAMI_EDUCACIONPADRE = Tecnica o tecnologica: Satisfactorio o avanzado (84.0/20.0)
|   |   |   |   |   |   |   |   FAMI_EDUCACIONPADRE = Postgrado: Minimo o insuficiente (1.0)
|   |   |   |   |   |   |   COLE_DEPTO_UBICACION = CORDOBA
|   |   |   |   |   |   |   |   FAMI_NUMLIBROS = 11 A 25 LIBROS
|   |   |   |   |   |   |   |   |   FAMI_EDUCACIONPADRE = Primaria
|   |   |   |   |   |   |   |   |   |   FAMI_PERSONASHOGAR = 3 a 4: Satisfactorio o avanzado (37.0/9.0)
|   |   |   |   |   |   |   |   |   |   FAMI_PERSONASHOGAR = 5 a 6
|   |   |   |   |   |   |   |   |   |   |   FAMI_TIENECOMPUTADOR = No: Satisfactorio o avanzado (43.0/12.0)
|   |   |   |   |   |   |   |   |   |   |   FAMI_TIENECOMPUTADOR = Si: Minimo o insuficiente (5.0)
|   |   |   |   |   |   |   |   |   |   FAMI_PERSONASHOGAR = 7 o mas
|   |   |   |   |   |   |   |   |   |   |   ESTU_DEDICACIONINTERNET = Entre 1 y 3 horas
|   |   |   |   |   |   |   |   |   |   |   |   FAMI_COMECARNEPESCADOHUEVO = 1 o 2 veces por semana: Minimo o insuficiente (2.0)
|   |   |   |   |   |   |   |   |   |   |   |   FAMI_COMECARNEPESCADOHUEVO = 3 a 5 veces por semana: Satisfactorio o avanzado (2.0)
|   |   |   |   |   |   |   |   |   |   |   |   FAMI_COMECARNEPESCADOHUEVO = Todos o casi todos los dias: Minimo o insuficiente (0.0)
|   |   |   |   |   |   |   |   |   |   |   |   FAMI_COMECARNEPESCADOHUEVO = Nunca o rara vez comemos eso: Minimo o insuficiente (0.0)
|   |   |   |   |   |   |   |   |   |   |   ESTU_DEDICACIONINTERNET = Hasta 1 hora: Minimo o insuficiente (5.0)
|   |   |   |   |   |   |   |   |   |   |   ESTU_DEDICACIONINTERNET = Mas de 3 horas: Minimo o insuficiente (0.0)
|   |   |   |   |   |   |   |   |   |   |   ESTU_DEDICACIONINTERNET = No Navega Internet: Satisfactorio o avanzado (3.0/1.0)
|   |   |   |   |   |   |   |   |   |   FAMI_PERSONASHOGAR = 1 a 2: Minimo o insuficiente (2.0/1.0)
|   |   |   |   |   |   |   |   |   FAMI_EDUCACIONPADRE = Profesional
|   |   |   |   |   |   |   |   |   |   ESTU_DEDICACIONINTERNET = Entre 1 y 3 horas: Minimo o insuficiente (3.0)
|   |   |   |   |   |   |   |   |   |   ESTU_DEDICACIONINTERNET = Hasta 1 hora: Satisfactorio o avanzado (37.0/4.0)
|   |   |   |   |   |   |   |   |   |   ESTU_DEDICACIONINTERNET = Mas de 3 horas: Satisfactorio o avanzado (1.0)
|   |   |   |   |   |   |   |   |   |   ESTU_DEDICACIONINTERNET = No Navega Internet: Satisfactorio o avanzado (0.0)
|   |   |   |   |   |   |   |   |   FAMI_EDUCACIONPADRE = Bachillerato
|   |   |   |   |   |   |   |   |   |   FAMI_COMECARNEPESCADOHUEVO = 1 o 2 veces por semana: Satisfactorio o avanzado (113.0/29.0)
|   |   |   |   |   |   |   |   |   |   FAMI_COMECARNEPESCADOHUEVO = 3 a 5 veces por semana: Satisfactorio o avanzado (69.0/25.0)
|   |   |   |   |   |   |   |   |   |   FAMI_COMECARNEPESCADOHUEVO = Todos o casi todos los dias
|   |   |   |   |   |   |   |   |   |   |   ESTU_DEDICACIONINTERNET = Entre 1 y 3 horas: Satisfactorio o avanzado (10.0/3.0)
|   |   |   |   |   |   |   |   |   |   |   ESTU_DEDICACIONINTERNET = Hasta 1 hora: Minimo o insuficiente (18.0/7.0)
|   |   |   |   |   |   |   |   |   |   |   ESTU_DEDICACIONINTERNET = Mas de 3 horas: Minimo o insuficiente (0.0)
|   |   |   |   |   |   |   |   |   |   |   ESTU_DEDICACIONINTERNET = No Navega Internet: Minimo o insuficiente (1.0)
|   |   |   |   |   |   |   |   |   |   FAMI_COMECARNEPESCADOHUEVO = Nunca o rara vez comemos eso: Minimo o insuficiente (4.0)
|   |   |   |   |   |   |   |   |   FAMI_EDUCACIONPADRE = No aplica
|   |   |   |   |   |   |   |   |   |   ESTU_DEDICACIONINTERNET = Entre 1 y 3 horas
|   |   |   |   |   |   |   |   |   |   |   FAMI_PERSONASHOGAR = 3 a 4: Satisfactorio o avanzado (11.0/2.0)
|   |   |   |   |   |   |   |   |   |   |   FAMI_PERSONASHOGAR = 5 a 6: Minimo o insuficiente (5.0/1.0)
|   |   |   |   |   |   |   |   |   |   |   FAMI_PERSONASHOGAR = 7 o mas: Satisfactorio o avanzado (2.0)
|   |   |   |   |   |   |   |   |   |   |   FAMI_PERSONASHOGAR = 1 a 2: Minimo o insuficiente (1.0)
|   |   |   |   |   |   |   |   |   |   ESTU_DEDICACIONINTERNET = Hasta 1 hora
|   |   |   |   |   |   |   |   |   |   |   FAMI_TIENECOMPUTADOR = No: Minimo o insuficiente (34.0/11.0)
|   |   |   |   |   |   |   |   |   |   |   FAMI_TIENECOMPUTADOR = Si: Satisfactorio o avanzado (9.0/3.0)
|   |   |   |   |   |   |   |   |   |   ESTU_DEDICACIONINTERNET = Mas de 3 horas: Satisfactorio o avanzado (6.0)
|   |   |   |   |   |   |   |   |   |   ESTU_DEDICACIONINTERNET = No Navega Internet: Minimo o insuficiente (3.0)
|   |   |   |   |   |   |   |   |   FAMI_EDUCACIONPADRE = Tecnica o tecnologica
|   |   |   |   |   |   |   |   |   |   ESTU_DEDICACIONINTERNET = Entre 1 y 3 horas: Minimo o insuficiente (3.0/1.0)
|   |   |   |   |   |   |   |   |   |   ESTU_DEDICACIONINTERNET = Hasta 1 hora: Satisfactorio o avanzado (26.0/2.0)
|   |   |   |   |   |   |   |   |   |   ESTU_DEDICACIONINTERNET = Mas de 3 horas: Minimo o insuficiente (2.0)
|   |   |   |   |   |   |   |   |   |   ESTU_DEDICACIONINTERNET = No Navega Internet: Minimo o insuficiente (2.0)
|   |   |   |   |   |   |   |   |   FAMI_EDUCACIONPADRE = Postgrado: Satisfactorio o avanzado (1.0)
|   |   |   |   |   |   |   |   FAMI_NUMLIBROS = 26 A 100 LIBROS: Satisfactorio o avanzado (222.0/46.0)
|   |   |   |   |   |   |   |   FAMI_NUMLIBROS = 0 A 10 LIBROS
|   |   |   |   |   |   |   |   |   ESTU_DEDICACIONINTERNET = Entre 1 y 3 horas: Satisfactorio o avanzado (153.0/62.0)
|   |   |   |   |   |   |   |   |   ESTU_DEDICACIONINTERNET = Hasta 1 hora
|   |   |   |   |   |   |   |   |   |   FAMI_COMECARNEPESCADOHUEVO = 1 o 2 veces por semana: Satisfactorio o avanzado (299.0/107.0)
|   |   |   |   |   |   |   |   |   |   FAMI_COMECARNEPESCADOHUEVO = 3 a 5 veces por semana
|   |   |   |   |   |   |   |   |   |   |   FAMI_TIENECOMPUTADOR = No
|   |   |   |   |   |   |   |   |   |   |   |   FAMI_PERSONASHOGAR = 3 a 4
|   |   |   |   |   |   |   |   |   |   |   |   |   FAMI_EDUCACIONPADRE = Primaria: Satisfactorio o avanzado (24.0/7.0)
|   |   |   |   |   |   |   |   |   |   |   |   |   FAMI_EDUCACIONPADRE = Profesional: Satisfactorio o avanzado (3.0/1.0)
|   |   |   |   |   |   |   |   |   |   |   |   |   FAMI_EDUCACIONPADRE = Bachillerato: Minimo o insuficiente (20.0/7.0)
|   |   |   |   |   |   |   |   |   |   |   |   |   FAMI_EDUCACIONPADRE = No aplica
|   |   |   |   |   |   |   |   |   |   |   |   |   |   FAMI_TIENESERVICIOTV = Si: Minimo o insuficiente (3.0/1.0)
|   |   |   |   |   |   |   |   |   |   |   |   |   |   FAMI_TIENESERVICIOTV = No: Satisfactorio o avanzado (9.0/1.0)
|   |   |   |   |   |   |   |   |   |   |   |   |   FAMI_EDUCACIONPADRE = Tecnica o tecnologica: Satisfactorio o avanzado (4.0/1.0)
|   |   |   |   |   |   |   |   |   |   |   |   |   FAMI_EDUCACIONPADRE = Postgrado: Satisfactorio o avanzado (0.0)
|   |   |   |   |   |   |   |   |   |   |   |   FAMI_PERSONASHOGAR = 5 a 6
|   |   |   |   |   |   |   |   |   |   |   |   |   FAMI_TIENESERVICIOTV = Si: Minimo o insuficiente (38.0/17.0)
|   |   |   |   |   |   |   |   |   |   |   |   |   FAMI_TIENESERVICIOTV = No: Satisfactorio o avanzado (18.0/4.0)
|   |   |   |   |   |   |   |   |   |   |   |   FAMI_PERSONASHOGAR = 7 o mas: Minimo o insuficiente (16.0/7.0)
|   |   |   |   |   |   |   |   |   |   |   |   FAMI_PERSONASHOGAR = 1 a 2: Minimo o insuficiente (2.0)
|   |   |   |   |   |   |   |   |   |   |   FAMI_TIENECOMPUTADOR = Si: Satisfactorio o avanzado (38.0/8.0)
|   |   |   |   |   |   |   |   |   |   FAMI_COMECARNEPESCADOHUEVO = Todos o casi todos los dias: Satisfactorio o avanzado (48.0/14.0)
|   |   |   |   |   |   |   |   |   |   FAMI_COMECARNEPESCADOHUEVO = Nunca o rara vez comemos eso: Minimo o insuficiente (17.0/3.0)
|   |   |   |   |   |   |   |   |   ESTU_DEDICACIONINTERNET = Mas de 3 horas
|   |   |   |   |   |   |   |   |   |   FAMI_EDUCACIONPADRE = Primaria: Satisfactorio o avanzado (8.0/2.0)
|   |   |   |   |   |   |   |   |   |   FAMI_EDUCACIONPADRE = Profesional: Minimo o insuficiente (0.0)
|   |   |   |   |   |   |   |   |   |   FAMI_EDUCACIONPADRE = Bachillerato: Minimo o insuficiente (10.0)
|   |   |   |   |   |   |   |   |   |   FAMI_EDUCACIONPADRE = No aplica: Minimo o insuficiente (6.0/3.0)
|   |   |   |   |   |   |   |   |   |   FAMI_EDUCACIONPADRE = Tecnica o tecnologica: Minimo o insuficiente (0.0)
|   |   |   |   |   |   |   |   |   |   FAMI_EDUCACIONPADRE = Postgrado: Minimo o insuficiente (0.0)
|   |   |   |   |   |   |   |   |   ESTU_DEDICACIONINTERNET = No Navega Internet: Minimo o insuficiente (60.0/23.0)
|   |   |   |   |   |   |   |   FAMI_NUMLIBROS = MAS DE 100 LIBROS
|   |   |   |   |   |   |   |   |   FAMI_TIENECOMPUTADOR = No: Minimo o insuficiente (23.0/8.0)
|   |   |   |   |   |   |   |   |   FAMI_TIENECOMPUTADOR = Si
|   |   |   |   |   |   |   |   |   |   FAMI_COMECARNEPESCADOHUEVO = 1 o 2 veces por semana: Satisfactorio o avanzado (4.0)
|   |   |   |   |   |   |   |   |   |   FAMI_COMECARNEPESCADOHUEVO = 3 a 5 veces por semana: Minimo o insuficiente (2.0)
|   |   |   |   |   |   |   |   |   |   FAMI_COMECARNEPESCADOHUEVO = Todos o casi todos los dias: Satisfactorio o avanzado (1.0)
|   |   |   |   |   |   |   |   |   |   FAMI_COMECARNEPESCADOHUEVO = Nunca o rara vez comemos eso: Satisfactorio o avanzado (0.0)
|   |   |   |   |   |   |   COLE_DEPTO_UBICACION = ATLANTICO
|   |   |   |   |   |   |   |   FAMI_NUMLIBROS = 11 A 25 LIBROS
|   |   |   |   |   |   |   |   |   ESTU_DEDICACIONINTERNET = Entre 1 y 3 horas
|   |   |   |   |   |   |   |   |   |   FAMI_EDUCACIONPADRE = Primaria: Satisfactorio o avanzado (16.0/1.0)
|   |   |   |   |   |   |   |   |   |   FAMI_EDUCACIONPADRE = Profesional: Satisfactorio o avanzado (5.0)
|   |   |   |   |   |   |   |   |   |   FAMI_EDUCACIONPADRE = Bachillerato: Minimo o insuficiente (36.0/10.0)
|   |   |   |   |   |   |   |   |   |   FAMI_EDUCACIONPADRE = No aplica
|   |   |   |   |   |   |   |   |   |   |   FAMI_TIENESERVICIOTV = Si: Minimo o insuficiente (6.0)
|   |   |   |   |   |   |   |   |   |   |   FAMI_TIENESERVICIOTV = No
|   |   |   |   |   |   |   |   |   |   |   |   FAMI_COMECARNEPESCADOHUEVO = 1 o 2 veces por semana: Satisfactorio o avanzado (2.0)
|   |   |   |   |   |   |   |   |   |   |   |   FAMI_COMECARNEPESCADOHUEVO = 3 a 5 veces por semana: Satisfactorio o avanzado (1.0)
|   |   |   |   |   |   |   |   |   |   |   |   FAMI_COMECARNEPESCADOHUEVO = Todos o casi todos los dias: Minimo o insuficiente (2.0)
|   |   |   |   |   |   |   |   |   |   |   |   FAMI_COMECARNEPESCADOHUEVO = Nunca o rara vez comemos eso: Satisfactorio o avanzado (0.0)
|   |   |   |   |   |   |   |   |   |   FAMI_EDUCACIONPADRE = Tecnica o tecnologica: Satisfactorio o avanzado (7.0/2.0)
|   |   |   |   |   |   |   |   |   |   FAMI_EDUCACIONPADRE = Postgrado: Satisfactorio o avanzado (0.0)
|   |   |   |   |   |   |   |   |   ESTU_DEDICACIONINTERNET = Hasta 1 hora
|   |   |   |   |   |   |   |   |   |   FAMI_COMECARNEPESCADOHUEVO = 1 o 2 veces por semana
|   |   |   |   |   |   |   |   |   |   |   FAMI_EDUCACIONPADRE = Primaria
|   |   |   |   |   |   |   |   |   |   |   |   FAMI_PERSONASHOGAR = 3 a 4: Satisfactorio o avanzado (9.0/3.0)
|   |   |   |   |   |   |   |   |   |   |   |   FAMI_PERSONASHOGAR = 5 a 6: Minimo o insuficiente (8.0/2.0)
|   |   |   |   |   |   |   |   |   |   |   |   FAMI_PERSONASHOGAR = 7 o mas: Satisfactorio o avanzado (1.0)
|   |   |   |   |   |   |   |   |   |   |   |   FAMI_PERSONASHOGAR = 1 a 2: Minimo o insuficiente (0.0)
|   |   |   |   |   |   |   |   |   |   |   FAMI_EDUCACIONPADRE = Profesional: Minimo o insuficiente (1.0)
|   |   |   |   |   |   |   |   |   |   |   FAMI_EDUCACIONPADRE = Bachillerato
|   |   |   |   |   |   |   |   |   |   |   |   FAMI_TIENESERVICIOTV = Si: Minimo o insuficiente (8.0/3.0)
|   |   |   |   |   |   |   |   |   |   |   |   FAMI_TIENESERVICIOTV = No: Satisfactorio o avanzado (14.0/1.0)
|   |   |   |   |   |   |   |   |   |   |   FAMI_EDUCACIONPADRE = No aplica
|   |   |   |   |   |   |   |   |   |   |   |   FAMI_PERSONASHOGAR = 3 a 4: Minimo o insuficiente (5.0/1.0)
|   |   |   |   |   |   |   |   |   |   |   |   FAMI_PERSONASHOGAR = 5 a 6: Satisfactorio o avanzado (10.0/2.0)
|   |   |   |   |   |   |   |   |   |   |   |   FAMI_PERSONASHOGAR = 7 o mas: Minimo o insuficiente (2.0)
|   |   |   |   |   |   |   |   |   |   |   |   FAMI_PERSONASHOGAR = 1 a 2: Satisfactorio o avanzado (0.0)
|   |   |   |   |   |   |   |   |   |   |   FAMI_EDUCACIONPADRE = Tecnica o tecnologica: Satisfactorio o avanzado (0.0)
|   |   |   |   |   |   |   |   |   |   |   FAMI_EDUCACIONPADRE = Postgrado: Satisfactorio o avanzado (0.0)
|   |   |   |   |   |   |   |   |   |   FAMI_COMECARNEPESCADOHUEVO = 3 a 5 veces por semana
|   |   |   |   |   |   |   |   |   |   |   FAMI_EDUCACIONPADRE = Primaria
|   |   |   |   |   |   |   |   |   |   |   |   FAMI_PERSONASHOGAR = 3 a 4: Minimo o insuficiente (3.0/1.0)
|   |   |   |   |   |   |   |   |   |   |   |   FAMI_PERSONASHOGAR = 5 a 6: Satisfactorio o avanzado (4.0/1.0)
|   |   |   |   |   |   |   |   |   |   |   |   FAMI_PERSONASHOGAR = 7 o mas: Minimo o insuficiente (3.0)
|   |   |   |   |   |   |   |   |   |   |   |   FAMI_PERSONASHOGAR = 1 a 2: Minimo o insuficiente (0.0)
|   |   |   |   |   |   |   |   |   |   |   FAMI_EDUCACIONPADRE = Profesional: Satisfactorio o avanzado (6.0/2.0)
|   |   |   |   |   |   |   |   |   |   |   FAMI_EDUCACIONPADRE = Bachillerato
|   |   |   |   |   |   |   |   |   |   |   |   FAMI_PERSONASHOGAR = 3 a 4: Minimo o insuficiente (9.0/4.0)
|   |   |   |   |   |   |   |   |   |   |   |   FAMI_PERSONASHOGAR = 5 a 6: Minimo o insuficiente (14.0/4.0)
|   |   |   |   |   |   |   |   |   |   |   |   FAMI_PERSONASHOGAR = 7 o mas: Satisfactorio o avanzado (5.0)
|   |   |   |   |   |   |   |   |   |   |   |   FAMI_PERSONASHOGAR = 1 a 2: Minimo o insuficiente (0.0)
|   |   |   |   |   |   |   |   |   |   |   FAMI_EDUCACIONPADRE = No aplica
|   |   |   |   |   |   |   |   |   |   |   |   FAMI_TIENECOMPUTADOR = No: Minimo o insuficiente (8.0/3.0)
|   |   |   |   |   |   |   |   |   |   |   |   FAMI_TIENECOMPUTADOR = Si: Satisfactorio o avanzado (3.0)
|   |   |   |   |   |   |   |   |   |   |   FAMI_EDUCACIONPADRE = Tecnica o tecnologica
|   |   |   |   |   |   |   |   |   |   |   |   FAMI_TIENESERVICIOTV = Si: Satisfactorio o avanzado (5.0)
|   |   |   |   |   |   |   |   |   |   |   |   FAMI_TIENESERVICIOTV = No: Minimo o insuficiente (5.0/2.0)
|   |   |   |   |   |   |   |   |   |   |   FAMI_EDUCACIONPADRE = Postgrado: Satisfactorio o avanzado (0.0)
|   |   |   |   |   |   |   |   |   |   FAMI_COMECARNEPESCADOHUEVO = Todos o casi todos los dias
|   |   |   |   |   |   |   |   |   |   |   FAMI_EDUCACIONPADRE = Primaria: Minimo o insuficiente (6.0)
|   |   |   |   |   |   |   |   |   |   |   FAMI_EDUCACIONPADRE = Profesional: Satisfactorio o avanzado (0.0)
|   |   |   |   |   |   |   |   |   |   |   FAMI_EDUCACIONPADRE = Bachillerato: Satisfactorio o avanzado (13.0/4.0)
|   |   |   |   |   |   |   |   |   |   |   FAMI_EDUCACIONPADRE = No aplica: Satisfactorio o avanzado (4.0/1.0)
|   |   |   |   |   |   |   |   |   |   |   FAMI_EDUCACIONPADRE = Tecnica o tecnologica: Satisfactorio o avanzado (1.0)
|   |   |   |   |   |   |   |   |   |   |   FAMI_EDUCACIONPADRE = Postgrado: Satisfactorio o avanzado (0.0)
|   |   |   |   |   |   |   |   |   |   FAMI_COMECARNEPESCADOHUEVO = Nunca o rara vez comemos eso: Minimo o insuficiente (11.0/2.0)
|   |   |   |   |   |   |   |   |   ESTU_DEDICACIONINTERNET = Mas de 3 horas: Minimo o insuficiente (20.0/6.0)
|   |   |   |   |   |   |   |   |   ESTU_DEDICACIONINTERNET = No Navega Internet
|   |   |   |   |   |   |   |   |   |   FAMI_COMECARNEPESCADOHUEVO = 1 o 2 veces por semana: Minimo o insuficiente (9.0/1.0)
|   |   |   |   |   |   |   |   |   |   FAMI_COMECARNEPESCADOHUEVO = 3 a 5 veces por semana: Satisfactorio o avanzado (2.0)
|   |   |   |   |   |   |   |   |   |   FAMI_COMECARNEPESCADOHUEVO = Todos o casi todos los dias: Minimo o insuficiente (1.0)
|   |   |   |   |   |   |   |   |   |   FAMI_COMECARNEPESCADOHUEVO = Nunca o rara vez comemos eso: Minimo o insuficiente (0.0)
|   |   |   |   |   |   |   |   FAMI_NUMLIBROS = 26 A 100 LIBROS
|   |   |   |   |   |   |   |   |   FAMI_PERSONASHOGAR = 3 a 4
|   |   |   |   |   |   |   |   |   |   FAMI_COMECARNEPESCADOHUEVO = 1 o 2 veces por semana: Satisfactorio o avanzado (18.0/4.0)
|   |   |   |   |   |   |   |   |   |   FAMI_COMECARNEPESCADOHUEVO = 3 a 5 veces por semana
|   |   |   |   |   |   |   |   |   |   |   FAMI_TIENESERVICIOTV = Si: Minimo o insuficiente (5.0)
|   |   |   |   |   |   |   |   |   |   |   FAMI_TIENESERVICIOTV = No: Satisfactorio o avanzado (15.0/6.0)
|   |   |   |   |   |   |   |   |   |   FAMI_COMECARNEPESCADOHUEVO = Todos o casi todos los dias: Satisfactorio o avanzado (10.0/2.0)
|   |   |   |   |   |   |   |   |   |   FAMI_COMECARNEPESCADOHUEVO = Nunca o rara vez comemos eso: Satisfactorio o avanzado (0.0)
|   |   |   |   |   |   |   |   |   FAMI_PERSONASHOGAR = 5 a 6
|   |   |   |   |   |   |   |   |   |   ESTU_DEDICACIONINTERNET = Entre 1 y 3 horas: Minimo o insuficiente (12.0/4.0)
|   |   |   |   |   |   |   |   |   |   ESTU_DEDICACIONINTERNET = Hasta 1 hora: Minimo o insuficiente (23.0/10.0)
|   |   |   |   |   |   |   |   |   |   ESTU_DEDICACIONINTERNET = Mas de 3 horas
|   |   |   |   |   |   |   |   |   |   |   FAMI_COMECARNEPESCADOHUEVO = 1 o 2 veces por semana: Minimo o insuficiente (2.0)
|   |   |   |   |   |   |   |   |   |   |   FAMI_COMECARNEPESCADOHUEVO = 3 a 5 veces por semana: Satisfactorio o avanzado (6.0/1.0)
|   |   |   |   |   |   |   |   |   |   |   FAMI_COMECARNEPESCADOHUEVO = Todos o casi todos los dias: Satisfactorio o avanzado (2.0)
|   |   |   |   |   |   |   |   |   |   |   FAMI_COMECARNEPESCADOHUEVO = Nunca o rara vez comemos eso: Satisfactorio o avanzado (0.0)
|   |   |   |   |   |   |   |   |   |   ESTU_DEDICACIONINTERNET = No Navega Internet: Minimo o insuficiente (3.0)
|   |   |   |   |   |   |   |   |   FAMI_PERSONASHOGAR = 7 o mas
|   |   |   |   |   |   |   |   |   |   FAMI_TIENESERVICIOTV = Si: Minimo o insuficiente (13.0/3.0)
|   |   |   |   |   |   |   |   |   |   FAMI_TIENESERVICIOTV = No: Satisfactorio o avanzado (6.0/1.0)
|   |   |   |   |   |   |   |   |   FAMI_PERSONASHOGAR = 1 a 2: Minimo o insuficiente (2.0)
|   |   |   |   |   |   |   |   FAMI_NUMLIBROS = 0 A 10 LIBROS: Minimo o insuficiente (449.0/144.0)
|   |   |   |   |   |   |   |   FAMI_NUMLIBROS = MAS DE 100 LIBROS: Minimo o insuficiente (20.0/6.0)
|   |   |   |   |   |   |   COLE_DEPTO_UBICACION = MAGDALENA
|   |   |   |   |   |   |   |   FAMI_COMECARNEPESCADOHUEVO = 1 o 2 veces por semana
|   |   |   |   |   |   |   |   |   FAMI_EDUCACIONPADRE = Primaria
|   |   |   |   |   |   |   |   |   |   FAMI_PERSONASHOGAR = 3 a 4
|   |   |   |   |   |   |   |   |   |   |   FAMI_TIENESERVICIOTV = Si: Satisfactorio o avanzado (10.0/4.0)
|   |   |   |   |   |   |   |   |   |   |   FAMI_TIENESERVICIOTV = No: Minimo o insuficiente (8.0/2.0)
|   |   |   |   |   |   |   |   |   |   FAMI_PERSONASHOGAR = 5 a 6
|   |   |   |   |   |   |   |   |   |   |   ESTU_DEDICACIONINTERNET = Entre 1 y 3 horas
|   |   |   |   |   |   |   |   |   |   |   |   FAMI_TIENESERVICIOTV = Si: Satisfactorio o avanzado (3.0)
|   |   |   |   |   |   |   |   |   |   |   |   FAMI_TIENESERVICIOTV = No: Minimo o insuficiente (6.0)
|   |   |   |   |   |   |   |   |   |   |   ESTU_DEDICACIONINTERNET = Hasta 1 hora
|   |   |   |   |   |   |   |   |   |   |   |   FAMI_TIENECOMPUTADOR = No: Satisfactorio o avanzado (28.0/6.0)
|   |   |   |   |   |   |   |   |   |   |   |   FAMI_TIENECOMPUTADOR = Si
|   |   |   |   |   |   |   |   |   |   |   |   |   FAMI_TIENESERVICIOTV = Si: Minimo o insuficiente (3.0)
|   |   |   |   |   |   |   |   |   |   |   |   |   FAMI_TIENESERVICIOTV = No: Satisfactorio o avanzado (4.0/1.0)
|   |   |   |   |   |   |   |   |   |   |   ESTU_DEDICACIONINTERNET = Mas de 3 horas: Satisfactorio o avanzado (2.0)
|   |   |   |   |   |   |   |   |   |   |   ESTU_DEDICACIONINTERNET = No Navega Internet: Satisfactorio o avanzado (3.0)
|   |   |   |   |   |   |   |   |   |   FAMI_PERSONASHOGAR = 7 o mas: Minimo o insuficiente (13.0/5.0)
|   |   |   |   |   |   |   |   |   |   FAMI_PERSONASHOGAR = 1 a 2: Minimo o insuficiente (1.0)
|   |   |   |   |   |   |   |   |   FAMI_EDUCACIONPADRE = Profesional: Satisfactorio o avanzado (8.0/2.0)
|   |   |   |   |   |   |   |   |   FAMI_EDUCACIONPADRE = Bachillerato: Minimo o insuficiente (93.0/31.0)
|   |   |   |   |   |   |   |   |   FAMI_EDUCACIONPADRE = No aplica: Minimo o insuficiente (37.0/8.0)
|   |   |   |   |   |   |   |   |   FAMI_EDUCACIONPADRE = Tecnica o tecnologica
|   |   |   |   |   |   |   |   |   |   FAMI_TIENECOMPUTADOR = No: Minimo o insuficiente (6.0/2.0)
|   |   |   |   |   |   |   |   |   |   FAMI_TIENECOMPUTADOR = Si: Satisfactorio o avanzado (4.0/1.0)
|   |   |   |   |   |   |   |   |   FAMI_EDUCACIONPADRE = Postgrado: Minimo o insuficiente (0.0)
|   |   |   |   |   |   |   |   FAMI_COMECARNEPESCADOHUEVO = 3 a 5 veces por semana: Minimo o insuficiente (127.0/39.0)
|   |   |   |   |   |   |   |   FAMI_COMECARNEPESCADOHUEVO = Todos o casi todos los dias: Minimo o insuficiente (65.0/11.0)
|   |   |   |   |   |   |   |   FAMI_COMECARNEPESCADOHUEVO = Nunca o rara vez comemos eso: Minimo o insuficiente (19.0/1.0)
|   |   |   |   |   |   |   COLE_DEPTO_UBICACION = SUCRE
|   |   |   |   |   |   |   |   FAMI_EDUCACIONPADRE = Primaria
|   |   |   |   |   |   |   |   |   FAMI_TIENESERVICIOTV = Si
|   |   |   |   |   |   |   |   |   |   FAMI_NUMLIBROS = 11 A 25 LIBROS: Satisfactorio o avanzado (32.0/11.0)
|   |   |   |   |   |   |   |   |   |   FAMI_NUMLIBROS = 26 A 100 LIBROS
|   |   |   |   |   |   |   |   |   |   |   FAMI_COMECARNEPESCADOHUEVO = 1 o 2 veces por semana: Satisfactorio o avanzado (9.0/2.0)
|   |   |   |   |   |   |   |   |   |   |   FAMI_COMECARNEPESCADOHUEVO = 3 a 5 veces por semana: Minimo o insuficiente (3.0)
|   |   |   |   |   |   |   |   |   |   |   FAMI_COMECARNEPESCADOHUEVO = Todos o casi todos los dias: Minimo o insuficiente (2.0)
|   |   |   |   |   |   |   |   |   |   |   FAMI_COMECARNEPESCADOHUEVO = Nunca o rara vez comemos eso: Minimo o insuficiente (0.0)
|   |   |   |   |   |   |   |   |   |   FAMI_NUMLIBROS = 0 A 10 LIBROS
|   |   |   |   |   |   |   |   |   |   |   FAMI_PERSONASHOGAR = 3 a 4: Satisfactorio o avanzado (31.0/12.0)
|   |   |   |   |   |   |   |   |   |   |   FAMI_PERSONASHOGAR = 5 a 6: Satisfactorio o avanzado (42.0/18.0)
|   |   |   |   |   |   |   |   |   |   |   FAMI_PERSONASHOGAR = 7 o mas: Minimo o insuficiente (10.0/4.0)
|   |   |   |   |   |   |   |   |   |   |   FAMI_PERSONASHOGAR = 1 a 2: Minimo o insuficiente (4.0)
|   |   |   |   |   |   |   |   |   |   FAMI_NUMLIBROS = MAS DE 100 LIBROS: Minimo o insuficiente (2.0)
|   |   |   |   |   |   |   |   |   FAMI_TIENESERVICIOTV = No
|   |   |   |   |   |   |   |   |   |   FAMI_TIENECOMPUTADOR = No: Minimo o insuficiente (40.0/13.0)
|   |   |   |   |   |   |   |   |   |   FAMI_TIENECOMPUTADOR = Si: Satisfactorio o avanzado (7.0/2.0)
|   |   |   |   |   |   |   |   FAMI_EDUCACIONPADRE = Profesional
|   |   |   |   |   |   |   |   |   FAMI_TIENECOMPUTADOR = No
|   |   |   |   |   |   |   |   |   |   ESTU_DEDICACIONINTERNET = Entre 1 y 3 horas: Satisfactorio o avanzado (1.0)
|   |   |   |   |   |   |   |   |   |   ESTU_DEDICACIONINTERNET = Hasta 1 hora: Satisfactorio o avanzado (22.0/6.0)
|   |   |   |   |   |   |   |   |   |   ESTU_DEDICACIONINTERNET = Mas de 3 horas: Satisfactorio o avanzado (0.0)
|   |   |   |   |   |   |   |   |   |   ESTU_DEDICACIONINTERNET = No Navega Internet: Minimo o insuficiente (2.0)
|   |   |   |   |   |   |   |   |   FAMI_TIENECOMPUTADOR = Si: Minimo o insuficiente (7.0/1.0)
|   |   |   |   |   |   |   |   FAMI_EDUCACIONPADRE = Bachillerato
|   |   |   |   |   |   |   |   |   ESTU_DEDICACIONINTERNET = Entre 1 y 3 horas
|   |   |   |   |   |   |   |   |   |   FAMI_PERSONASHOGAR = 3 a 4
|   |   |   |   |   |   |   |   |   |   |   FAMI_TIENESERVICIOTV = Si: Minimo o insuficiente (17.0/6.0)
|   |   |   |   |   |   |   |   |   |   |   FAMI_TIENESERVICIOTV = No
|   |   |   |   |   |   |   |   |   |   |   |   FAMI_COMECARNEPESCADOHUEVO = 1 o 2 veces por semana: Satisfactorio o avanzado (4.0/1.0)
|   |   |   |   |   |   |   |   |   |   |   |   FAMI_COMECARNEPESCADOHUEVO = 3 a 5 veces por semana: Minimo o insuficiente (2.0)
|   |   |   |   |   |   |   |   |   |   |   |   FAMI_COMECARNEPESCADOHUEVO = Todos o casi todos los dias: Satisfactorio o avanzado (1.0)
|   |   |   |   |   |   |   |   |   |   |   |   FAMI_COMECARNEPESCADOHUEVO = Nunca o rara vez comemos eso: Satisfactorio o avanzado (0.0)
|   |   |   |   |   |   |   |   |   |   FAMI_PERSONASHOGAR = 5 a 6
|   |   |   |   |   |   |   |   |   |   |   FAMI_NUMLIBROS = 11 A 25 LIBROS
|   |   |   |   |   |   |   |   |   |   |   |   FAMI_TIENECOMPUTADOR = No: Minimo o insuficiente (7.0/2.0)
|   |   |   |   |   |   |   |   |   |   |   |   FAMI_TIENECOMPUTADOR = Si: Satisfactorio o avanzado (3.0)
|   |   |   |   |   |   |   |   |   |   |   FAMI_NUMLIBROS = 26 A 100 LIBROS: Minimo o insuficiente (1.0)
|   |   |   |   |   |   |   |   |   |   |   FAMI_NUMLIBROS = 0 A 10 LIBROS
|   |   |   |   |   |   |   |   |   |   |   |   FAMI_TIENECOMPUTADOR = No: Satisfactorio o avanzado (17.0/2.0)
|   |   |   |   |   |   |   |   |   |   |   |   FAMI_TIENECOMPUTADOR = Si
|   |   |   |   |   |   |   |   |   |   |   |   |   FAMI_COMECARNEPESCADOHUEVO = 1 o 2 veces por semana: Minimo o insuficiente (2.0)
|   |   |   |   |   |   |   |   |   |   |   |   |   FAMI_COMECARNEPESCADOHUEVO = 3 a 5 veces por semana: Satisfactorio o avanzado (2.0)
|   |   |   |   |   |   |   |   |   |   |   |   |   FAMI_COMECARNEPESCADOHUEVO = Todos o casi todos los dias: Minimo o insuficiente (1.0)
|   |   |   |   |   |   |   |   |   |   |   |   |   FAMI_COMECARNEPESCADOHUEVO = Nunca o rara vez comemos eso: Minimo o insuficiente (0.0)
|   |   |   |   |   |   |   |   |   |   |   FAMI_NUMLIBROS = MAS DE 100 LIBROS: Minimo o insuficiente (2.0)
|   |   |   |   |   |   |   |   |   |   FAMI_PERSONASHOGAR = 7 o mas: Minimo o insuficiente (9.0)
|   |   |   |   |   |   |   |   |   |   FAMI_PERSONASHOGAR = 1 a 2
|   |   |   |   |   |   |   |   |   |   |   FAMI_NUMLIBROS = 11 A 25 LIBROS: Minimo o insuficiente (2.0)
|   |   |   |   |   |   |   |   |   |   |   FAMI_NUMLIBROS = 26 A 100 LIBROS: Minimo o insuficiente (0.0)
|   |   |   |   |   |   |   |   |   |   |   FAMI_NUMLIBROS = 0 A 10 LIBROS: Satisfactorio o avanzado (2.0)
|   |   |   |   |   |   |   |   |   |   |   FAMI_NUMLIBROS = MAS DE 100 LIBROS: Minimo o insuficiente (0.0)
|   |   |   |   |   |   |   |   |   ESTU_DEDICACIONINTERNET = Hasta 1 hora: Satisfactorio o avanzado (279.0/96.0)
|   |   |   |   |   |   |   |   |   ESTU_DEDICACIONINTERNET = Mas de 3 horas
|   |   |   |   |   |   |   |   |   |   FAMI_PERSONASHOGAR = 3 a 4: Satisfactorio o avanzado (5.0/1.0)
|   |   |   |   |   |   |   |   |   |   FAMI_PERSONASHOGAR = 5 a 6: Minimo o insuficiente (1.0)
|   |   |   |   |   |   |   |   |   |   FAMI_PERSONASHOGAR = 7 o mas: Minimo o insuficiente (0.0)
|   |   |   |   |   |   |   |   |   |   FAMI_PERSONASHOGAR = 1 a 2: Minimo o insuficiente (2.0)
|   |   |   |   |   |   |   |   |   ESTU_DEDICACIONINTERNET = No Navega Internet: Satisfactorio o avanzado (25.0/10.0)
|   |   |   |   |   |   |   |   FAMI_EDUCACIONPADRE = No aplica
|   |   |   |   |   |   |   |   |   FAMI_COMECARNEPESCADOHUEVO = 1 o 2 veces por semana: Satisfactorio o avanzado (80.0/30.0)
|   |   |   |   |   |   |   |   |   FAMI_COMECARNEPESCADOHUEVO = 3 a 5 veces por semana
|   |   |   |   |   |   |   |   |   |   FAMI_TIENECOMPUTADOR = No: Minimo o insuficiente (48.0/13.0)
|   |   |   |   |   |   |   |   |   |   FAMI_TIENECOMPUTADOR = Si: Satisfactorio o avanzado (7.0/2.0)
|   |   |   |   |   |   |   |   |   FAMI_COMECARNEPESCADOHUEVO = Todos o casi todos los dias: Minimo o insuficiente (27.0/6.0)
|   |   |   |   |   |   |   |   |   FAMI_COMECARNEPESCADOHUEVO = Nunca o rara vez comemos eso
|   |   |   |   |   |   |   |   |   |   ESTU_DEDICACIONINTERNET = Entre 1 y 3 horas: Minimo o insuficiente (0.0)
|   |   |   |   |   |   |   |   |   |   ESTU_DEDICACIONINTERNET = Hasta 1 hora: Minimo o insuficiente (9.0)
|   |   |   |   |   |   |   |   |   |   ESTU_DEDICACIONINTERNET = Mas de 3 horas: Minimo o insuficiente (0.0)
|   |   |   |   |   |   |   |   |   |   ESTU_DEDICACIONINTERNET = No Navega Internet: Satisfactorio o avanzado (3.0/1.0)
|   |   |   |   |   |   |   |   FAMI_EDUCACIONPADRE = Tecnica o tecnologica: Satisfactorio o avanzado (54.0/15.0)
|   |   |   |   |   |   |   |   FAMI_EDUCACIONPADRE = Postgrado: Satisfactorio o avanzado (1.0)
|   |   |   |   |   |   |   COLE_DEPTO_UBICACION = CESAR
|   |   |   |   |   |   |   |   FAMI_TIENECOMPUTADOR = No
|   |   |   |   |   |   |   |   |   FAMI_TIENESERVICIOTV = Si
|   |   |   |   |   |   |   |   |   |   FAMI_COMECARNEPESCADOHUEVO = 1 o 2 veces por semana
|   |   |   |   |   |   |   |   |   |   |   FAMI_NUMLIBROS = 11 A 25 LIBROS: Minimo o insuficiente (43.0/10.0)
|   |   |   |   |   |   |   |   |   |   |   FAMI_NUMLIBROS = 26 A 100 LIBROS
|   |   |   |   |   |   |   |   |   |   |   |   FAMI_PERSONASHOGAR = 3 a 4: Minimo o insuficiente (4.0/1.0)
|   |   |   |   |   |   |   |   |   |   |   |   FAMI_PERSONASHOGAR = 5 a 6: Satisfactorio o avanzado (10.0)
|   |   |   |   |   |   |   |   |   |   |   |   FAMI_PERSONASHOGAR = 7 o mas: Satisfactorio o avanzado (0.0)
|   |   |   |   |   |   |   |   |   |   |   |   FAMI_PERSONASHOGAR = 1 a 2: Minimo o insuficiente (1.0)
|   |   |   |   |   |   |   |   |   |   |   FAMI_NUMLIBROS = 0 A 10 LIBROS
|   |   |   |   |   |   |   |   |   |   |   |   FAMI_EDUCACIONPADRE = Primaria: Minimo o insuficiente (13.0/1.0)
|   |   |   |   |   |   |   |   |   |   |   |   FAMI_EDUCACIONPADRE = Profesional: Satisfactorio o avanzado (3.0/1.0)
|   |   |   |   |   |   |   |   |   |   |   |   FAMI_EDUCACIONPADRE = Bachillerato
|   |   |   |   |   |   |   |   |   |   |   |   |   FAMI_PERSONASHOGAR = 3 a 4: Satisfactorio o avanzado (13.0/3.0)
|   |   |   |   |   |   |   |   |   |   |   |   |   FAMI_PERSONASHOGAR = 5 a 6: Minimo o insuficiente (19.0/4.0)
|   |   |   |   |   |   |   |   |   |   |   |   |   FAMI_PERSONASHOGAR = 7 o mas: Minimo o insuficiente (4.0/1.0)
|   |   |   |   |   |   |   |   |   |   |   |   |   FAMI_PERSONASHOGAR = 1 a 2: Satisfactorio o avanzado (2.0)
|   |   |   |   |   |   |   |   |   |   |   |   FAMI_EDUCACIONPADRE = No aplica
|   |   |   |   |   |   |   |   |   |   |   |   |   FAMI_PERSONASHOGAR = 3 a 4: Minimo o insuficiente (4.0)
|   |   |   |   |   |   |   |   |   |   |   |   |   FAMI_PERSONASHOGAR = 5 a 6: Satisfactorio o avanzado (12.0/5.0)
|   |   |   |   |   |   |   |   |   |   |   |   |   FAMI_PERSONASHOGAR = 7 o mas: Minimo o insuficiente (0.0)
|   |   |   |   |   |   |   |   |   |   |   |   |   FAMI_PERSONASHOGAR = 1 a 2: Minimo o insuficiente (0.0)
|   |   |   |   |   |   |   |   |   |   |   |   FAMI_EDUCACIONPADRE = Tecnica o tecnologica: Satisfactorio o avanzado (1.0)
|   |   |   |   |   |   |   |   |   |   |   |   FAMI_EDUCACIONPADRE = Postgrado: Minimo o insuficiente (0.0)
|   |   |   |   |   |   |   |   |   |   |   FAMI_NUMLIBROS = MAS DE 100 LIBROS: Minimo o insuficiente (2.0/1.0)
|   |   |   |   |   |   |   |   |   |   FAMI_COMECARNEPESCADOHUEVO = 3 a 5 veces por semana
|   |   |   |   |   |   |   |   |   |   |   FAMI_EDUCACIONPADRE = Primaria
|   |   |   |   |   |   |   |   |   |   |   |   FAMI_PERSONASHOGAR = 3 a 4: Minimo o insuficiente (9.0/3.0)
|   |   |   |   |   |   |   |   |   |   |   |   FAMI_PERSONASHOGAR = 5 a 6: Satisfactorio o avanzado (16.0/4.0)
|   |   |   |   |   |   |   |   |   |   |   |   FAMI_PERSONASHOGAR = 7 o mas: Minimo o insuficiente (5.0)
|   |   |   |   |   |   |   |   |   |   |   |   FAMI_PERSONASHOGAR = 1 a 2: Minimo o insuficiente (2.0/1.0)
|   |   |   |   |   |   |   |   |   |   |   FAMI_EDUCACIONPADRE = Profesional: Satisfactorio o avanzado (1.0)
|   |   |   |   |   |   |   |   |   |   |   FAMI_EDUCACIONPADRE = Bachillerato: Minimo o insuficiente (36.0/10.0)
|   |   |   |   |   |   |   |   |   |   |   FAMI_EDUCACIONPADRE = No aplica: Minimo o insuficiente (17.0/4.0)
|   |   |   |   |   |   |   |   |   |   |   FAMI_EDUCACIONPADRE = Tecnica o tecnologica: Satisfactorio o avanzado (3.0/1.0)
|   |   |   |   |   |   |   |   |   |   |   FAMI_EDUCACIONPADRE = Postgrado: Minimo o insuficiente (0.0)
|   |   |   |   |   |   |   |   |   |   FAMI_COMECARNEPESCADOHUEVO = Todos o casi todos los dias: Minimo o insuficiente (19.0/3.0)
|   |   |   |   |   |   |   |   |   |   FAMI_COMECARNEPESCADOHUEVO = Nunca o rara vez comemos eso: Minimo o insuficiente (16.0/3.0)
|   |   |   |   |   |   |   |   |   FAMI_TIENESERVICIOTV = No
|   |   |   |   |   |   |   |   |   |   FAMI_PERSONASHOGAR = 3 a 4
|   |   |   |   |   |   |   |   |   |   |   ESTU_DEDICACIONINTERNET = Entre 1 y 3 horas: Minimo o insuficiente (10.0/2.0)
|   |   |   |   |   |   |   |   |   |   |   ESTU_DEDICACIONINTERNET = Hasta 1 hora
|   |   |   |   |   |   |   |   |   |   |   |   FAMI_EDUCACIONPADRE = Primaria: Satisfactorio o avanzado (18.0/6.0)
|   |   |   |   |   |   |   |   |   |   |   |   FAMI_EDUCACIONPADRE = Profesional: Satisfactorio o avanzado (2.0)
|   |   |   |   |   |   |   |   |   |   |   |   FAMI_EDUCACIONPADRE = Bachillerato: Satisfactorio o avanzado (35.0/14.0)
|   |   |   |   |   |   |   |   |   |   |   |   FAMI_EDUCACIONPADRE = No aplica: Minimo o insuficiente (25.0/10.0)
|   |   |   |   |   |   |   |   |   |   |   |   FAMI_EDUCACIONPADRE = Tecnica o tecnologica: Satisfactorio o avanzado (1.0)
|   |   |   |   |   |   |   |   |   |   |   |   FAMI_EDUCACIONPADRE = Postgrado: Satisfactorio o avanzado (0.0)
|   |   |   |   |   |   |   |   |   |   |   ESTU_DEDICACIONINTERNET = Mas de 3 horas: Minimo o insuficiente (2.0)
|   |   |   |   |   |   |   |   |   |   |   ESTU_DEDICACIONINTERNET = No Navega Internet: Minimo o insuficiente (12.0/4.0)
|   |   |   |   |   |   |   |   |   |   FAMI_PERSONASHOGAR = 5 a 6
|   |   |   |   |   |   |   |   |   |   |   FAMI_NUMLIBROS = 11 A 25 LIBROS
|   |   |   |   |   |   |   |   |   |   |   |   ESTU_DEDICACIONINTERNET = Entre 1 y 3 horas: Minimo o insuficiente (3.0)
|   |   |   |   |   |   |   |   |   |   |   |   ESTU_DEDICACIONINTERNET = Hasta 1 hora: Minimo o insuficiente (21.0/9.0)
|   |   |   |   |   |   |   |   |   |   |   |   ESTU_DEDICACIONINTERNET = Mas de 3 horas: Minimo o insuficiente (1.0)
|   |   |   |   |   |   |   |   |   |   |   |   ESTU_DEDICACIONINTERNET = No Navega Internet: Satisfactorio o avanzado (7.0/1.0)
|   |   |   |   |   |   |   |   |   |   |   FAMI_NUMLIBROS = 26 A 100 LIBROS: Satisfactorio o avanzado (8.0/1.0)
|   |   |   |   |   |   |   |   |   |   |   FAMI_NUMLIBROS = 0 A 10 LIBROS
|   |   |   |   |   |   |   |   |   |   |   |   FAMI_COMECARNEPESCADOHUEVO = 1 o 2 veces por semana
|   |   |   |   |   |   |   |   |   |   |   |   |   ESTU_DEDICACIONINTERNET = Entre 1 y 3 horas: Minimo o insuficiente (4.0/2.0)
|   |   |   |   |   |   |   |   |   |   |   |   |   ESTU_DEDICACIONINTERNET = Hasta 1 hora: Satisfactorio o avanzado (25.0/8.0)
|   |   |   |   |   |   |   |   |   |   |   |   |   ESTU_DEDICACIONINTERNET = Mas de 3 horas: Satisfactorio o avanzado (0.0)
|   |   |   |   |   |   |   |   |   |   |   |   |   ESTU_DEDICACIONINTERNET = No Navega Internet: Minimo o insuficiente (7.0/2.0)
|   |   |   |   |   |   |   |   |   |   |   |   FAMI_COMECARNEPESCADOHUEVO = 3 a 5 veces por semana: Minimo o insuficiente (15.0/6.0)
|   |   |   |   |   |   |   |   |   |   |   |   FAMI_COMECARNEPESCADOHUEVO = Todos o casi todos los dias: Minimo o insuficiente (2.0/1.0)
|   |   |   |   |   |   |   |   |   |   |   |   FAMI_COMECARNEPESCADOHUEVO = Nunca o rara vez comemos eso: Minimo o insuficiente (5.0/2.0)
|   |   |   |   |   |   |   |   |   |   |   FAMI_NUMLIBROS = MAS DE 100 LIBROS: Minimo o insuficiente (1.0)
|   |   |   |   |   |   |   |   |   |   FAMI_PERSONASHOGAR = 7 o mas: Minimo o insuficiente (24.0/8.0)
|   |   |   |   |   |   |   |   |   |   FAMI_PERSONASHOGAR = 1 a 2: Minimo o insuficiente (8.0)
|   |   |   |   |   |   |   |   FAMI_TIENECOMPUTADOR = Si: Minimo o insuficiente (101.0/26.0)
|   |   |   |   |   |   |   COLE_DEPTO_UBICACION = LA GUAJIRA: Minimo o insuficiente (204.0/46.0)
|   |   |   |   |   |   |   COLE_DEPTO_UBICACION = SAN ANDRES: Minimo o insuficiente (14.0/1.0)
|   |   |   |   |   |   FAMI_COMELECHEDERIVADOS = 3 a 5 veces por semana
|   |   |   |   |   |   |   COLE_DEPTO_UBICACION = BOLIVAR
|   |   |   |   |   |   |   |   FAMI_EDUCACIONPADRE = Primaria
|   |   |   |   |   |   |   |   |   FAMI_TIENECOMPUTADOR = No
|   |   |   |   |   |   |   |   |   |   FAMI_TIENESERVICIOTV = Si
|   |   |   |   |   |   |   |   |   |   |   FAMI_COMECARNEPESCADOHUEVO = 1 o 2 veces por semana: Minimo o insuficiente (17.0/6.0)
|   |   |   |   |   |   |   |   |   |   |   FAMI_COMECARNEPESCADOHUEVO = 3 a 5 veces por semana
|   |   |   |   |   |   |   |   |   |   |   |   FAMI_PERSONASHOGAR = 3 a 4: Satisfactorio o avanzado (14.0/2.0)
|   |   |   |   |   |   |   |   |   |   |   |   FAMI_PERSONASHOGAR = 5 a 6: Minimo o insuficiente (12.0/4.0)
|   |   |   |   |   |   |   |   |   |   |   |   FAMI_PERSONASHOGAR = 7 o mas: Satisfactorio o avanzado (9.0/2.0)
|   |   |   |   |   |   |   |   |   |   |   |   FAMI_PERSONASHOGAR = 1 a 2: Satisfactorio o avanzado (0.0)
|   |   |   |   |   |   |   |   |   |   |   FAMI_COMECARNEPESCADOHUEVO = Todos o casi todos los dias: Minimo o insuficiente (39.0/13.0)
|   |   |   |   |   |   |   |   |   |   |   FAMI_COMECARNEPESCADOHUEVO = Nunca o rara vez comemos eso: Minimo o insuficiente (0.0)
|   |   |   |   |   |   |   |   |   |   FAMI_TIENESERVICIOTV = No: Satisfactorio o avanzado (48.0/16.0)
|   |   |   |   |   |   |   |   |   FAMI_TIENECOMPUTADOR = Si: Satisfactorio o avanzado (39.0/12.0)
|   |   |   |   |   |   |   |   FAMI_EDUCACIONPADRE = Profesional
|   |   |   |   |   |   |   |   |   FAMI_COMECARNEPESCADOHUEVO = 1 o 2 veces por semana: Minimo o insuficiente (1.0)
|   |   |   |   |   |   |   |   |   FAMI_COMECARNEPESCADOHUEVO = 3 a 5 veces por semana
|   |   |   |   |   |   |   |   |   |   FAMI_TIENESERVICIOTV = Si: Minimo o insuficiente (9.0/2.0)
|   |   |   |   |   |   |   |   |   |   FAMI_TIENESERVICIOTV = No: Satisfactorio o avanzado (4.0)
|   |   |   |   |   |   |   |   |   FAMI_COMECARNEPESCADOHUEVO = Todos o casi todos los dias
|   |   |   |   |   |   |   |   |   |   FAMI_NUMLIBROS = 11 A 25 LIBROS: Satisfactorio o avanzado (9.0/1.0)
|   |   |   |   |   |   |   |   |   |   FAMI_NUMLIBROS = 26 A 100 LIBROS: Satisfactorio o avanzado (7.0/1.0)
|   |   |   |   |   |   |   |   |   |   FAMI_NUMLIBROS = 0 A 10 LIBROS: Minimo o insuficiente (3.0)
|   |   |   |   |   |   |   |   |   |   FAMI_NUMLIBROS = MAS DE 100 LIBROS: Satisfactorio o avanzado (0.0)
|   |   |   |   |   |   |   |   |   FAMI_COMECARNEPESCADOHUEVO = Nunca o rara vez comemos eso: Satisfactorio o avanzado (0.0)
|   |   |   |   |   |   |   |   FAMI_EDUCACIONPADRE = Bachillerato
|   |   |   |   |   |   |   |   |   ESTU_DEDICACIONINTERNET = Entre 1 y 3 horas: Satisfactorio o avanzado (99.0/30.0)
|   |   |   |   |   |   |   |   |   ESTU_DEDICACIONINTERNET = Hasta 1 hora
|   |   |   |   |   |   |   |   |   |   FAMI_TIENESERVICIOTV = Si
|   |   |   |   |   |   |   |   |   |   |   FAMI_NUMLIBROS = 11 A 25 LIBROS
|   |   |   |   |   |   |   |   |   |   |   |   FAMI_TIENECOMPUTADOR = No: Minimo o insuficiente (35.0/15.0)
|   |   |   |   |   |   |   |   |   |   |   |   FAMI_TIENECOMPUTADOR = Si: Satisfactorio o avanzado (8.0/1.0)
|   |   |   |   |   |   |   |   |   |   |   FAMI_NUMLIBROS = 26 A 100 LIBROS
|   |   |   |   |   |   |   |   |   |   |   |   FAMI_PERSONASHOGAR = 3 a 4: Satisfactorio o avanzado (9.0)
|   |   |   |   |   |   |   |   |   |   |   |   FAMI_PERSONASHOGAR = 5 a 6: Satisfactorio o avanzado (5.0/1.0)
|   |   |   |   |   |   |   |   |   |   |   |   FAMI_PERSONASHOGAR = 7 o mas: Minimo o insuficiente (3.0)
|   |   |   |   |   |   |   |   |   |   |   |   FAMI_PERSONASHOGAR = 1 a 2: Satisfactorio o avanzado (0.0)
|   |   |   |   |   |   |   |   |   |   |   FAMI_NUMLIBROS = 0 A 10 LIBROS
|   |   |   |   |   |   |   |   |   |   |   |   FAMI_COMECARNEPESCADOHUEVO = 1 o 2 veces por semana
|   |   |   |   |   |   |   |   |   |   |   |   |   FAMI_TIENECOMPUTADOR = No: Satisfactorio o avanzado (5.0)
|   |   |   |   |   |   |   |   |   |   |   |   |   FAMI_TIENECOMPUTADOR = Si: Minimo o insuficiente (2.0)
|   |   |   |   |   |   |   |   |   |   |   |   FAMI_COMECARNEPESCADOHUEVO = 3 a 5 veces por semana: Minimo o insuficiente (32.0/11.0)
|   |   |   |   |   |   |   |   |   |   |   |   FAMI_COMECARNEPESCADOHUEVO = Todos o casi todos los dias: Minimo o insuficiente (11.0/2.0)
|   |   |   |   |   |   |   |   |   |   |   |   FAMI_COMECARNEPESCADOHUEVO = Nunca o rara vez comemos eso: Minimo o insuficiente (3.0)
|   |   |   |   |   |   |   |   |   |   |   FAMI_NUMLIBROS = MAS DE 100 LIBROS: Satisfactorio o avanzado (3.0/1.0)
|   |   |   |   |   |   |   |   |   |   FAMI_TIENESERVICIOTV = No: Satisfactorio o avanzado (80.0/23.0)
|   |   |   |   |   |   |   |   |   ESTU_DEDICACIONINTERNET = Mas de 3 horas
|   |   |   |   |   |   |   |   |   |   FAMI_NUMLIBROS = 11 A 25 LIBROS
|   |   |   |   |   |   |   |   |   |   |   FAMI_PERSONASHOGAR = 3 a 4: Satisfactorio o avanzado (6.0)
|   |   |   |   |   |   |   |   |   |   |   FAMI_PERSONASHOGAR = 5 a 6: Minimo o insuficiente (3.0)
|   |   |   |   |   |   |   |   |   |   |   FAMI_PERSONASHOGAR = 7 o mas: Satisfactorio o avanzado (0.0)
|   |   |   |   |   |   |   |   |   |   |   FAMI_PERSONASHOGAR = 1 a 2: Satisfactorio o avanzado (0.0)
|   |   |   |   |   |   |   |   |   |   FAMI_NUMLIBROS = 26 A 100 LIBROS: Minimo o insuficiente (6.0/1.0)
|   |   |   |   |   |   |   |   |   |   FAMI_NUMLIBROS = 0 A 10 LIBROS: Minimo o insuficiente (14.0/1.0)
|   |   |   |   |   |   |   |   |   |   FAMI_NUMLIBROS = MAS DE 100 LIBROS: Minimo o insuficiente (2.0)
|   |   |   |   |   |   |   |   |   ESTU_DEDICACIONINTERNET = No Navega Internet: Minimo o insuficiente (11.0/3.0)
|   |   |   |   |   |   |   |   FAMI_EDUCACIONPADRE = No aplica
|   |   |   |   |   |   |   |   |   FAMI_TIENECOMPUTADOR = No
|   |   |   |   |   |   |   |   |   |   FAMI_NUMLIBROS = 11 A 25 LIBROS
|   |   |   |   |   |   |   |   |   |   |   FAMI_TIENESERVICIOTV = Si
|   |   |   |   |   |   |   |   |   |   |   |   FAMI_COMECARNEPESCADOHUEVO = 1 o 2 veces por semana: Minimo o insuficiente (3.0/1.0)
|   |   |   |   |   |   |   |   |   |   |   |   FAMI_COMECARNEPESCADOHUEVO = 3 a 5 veces por semana: Satisfactorio o avanzado (3.0)
|   |   |   |   |   |   |   |   |   |   |   |   FAMI_COMECARNEPESCADOHUEVO = Todos o casi todos los dias: Minimo o insuficiente (10.0/2.0)
|   |   |   |   |   |   |   |   |   |   |   |   FAMI_COMECARNEPESCADOHUEVO = Nunca o rara vez comemos eso: Minimo o insuficiente (0.0)
|   |   |   |   |   |   |   |   |   |   |   FAMI_TIENESERVICIOTV = No: Minimo o insuficiente (13.0)
|   |   |   |   |   |   |   |   |   |   FAMI_NUMLIBROS = 26 A 100 LIBROS
|   |   |   |   |   |   |   |   |   |   |   FAMI_PERSONASHOGAR = 3 a 4: Satisfactorio o avanzado (6.0/2.0)
|   |   |   |   |   |   |   |   |   |   |   FAMI_PERSONASHOGAR = 5 a 6: Satisfactorio o avanzado (3.0)
|   |   |   |   |   |   |   |   |   |   |   FAMI_PERSONASHOGAR = 7 o mas: Minimo o insuficiente (5.0/1.0)
|   |   |   |   |   |   |   |   |   |   |   FAMI_PERSONASHOGAR = 1 a 2: Satisfactorio o avanzado (0.0)
|   |   |   |   |   |   |   |   |   |   FAMI_NUMLIBROS = 0 A 10 LIBROS
|   |   |   |   |   |   |   |   |   |   |   FAMI_TIENESERVICIOTV = Si: Minimo o insuficiente (25.0/2.0)
|   |   |   |   |   |   |   |   |   |   |   FAMI_TIENESERVICIOTV = No
|   |   |   |   |   |   |   |   |   |   |   |   ESTU_DEDICACIONINTERNET = Entre 1 y 3 horas: Minimo o insuficiente (4.0/1.0)
|   |   |   |   |   |   |   |   |   |   |   |   ESTU_DEDICACIONINTERNET = Hasta 1 hora: Satisfactorio o avanzado (6.0/1.0)
|   |   |   |   |   |   |   |   |   |   |   |   ESTU_DEDICACIONINTERNET = Mas de 3 horas: Satisfactorio o avanzado (0.0)
|   |   |   |   |   |   |   |   |   |   |   |   ESTU_DEDICACIONINTERNET = No Navega Internet: Satisfactorio o avanzado (0.0)
|   |   |   |   |   |   |   |   |   |   FAMI_NUMLIBROS = MAS DE 100 LIBROS: Minimo o insuficiente (3.0)
|   |   |   |   |   |   |   |   |   FAMI_TIENECOMPUTADOR = Si: Satisfactorio o avanzado (25.0/5.0)
|   |   |   |   |   |   |   |   FAMI_EDUCACIONPADRE = Tecnica o tecnologica
|   |   |   |   |   |   |   |   |   FAMI_TIENECOMPUTADOR = No: Satisfactorio o avanzado (37.0/7.0)
|   |   |   |   |   |   |   |   |   FAMI_TIENECOMPUTADOR = Si
|   |   |   |   |   |   |   |   |   |   FAMI_NUMLIBROS = 11 A 25 LIBROS
|   |   |   |   |   |   |   |   |   |   |   ESTU_DEDICACIONINTERNET = Entre 1 y 3 horas: Satisfactorio o avanzado (6.0/2.0)
|   |   |   |   |   |   |   |   |   |   |   ESTU_DEDICACIONINTERNET = Hasta 1 hora: Minimo o insuficiente (2.0)
|   |   |   |   |   |   |   |   |   |   |   ESTU_DEDICACIONINTERNET = Mas de 3 horas: Minimo o insuficiente (0.0)
|   |   |   |   |   |   |   |   |   |   |   ESTU_DEDICACIONINTERNET = No Navega Internet: Minimo o insuficiente (1.0)
|   |   |   |   |   |   |   |   |   |   FAMI_NUMLIBROS = 26 A 100 LIBROS: Minimo o insuficiente (3.0)
|   |   |   |   |   |   |   |   |   |   FAMI_NUMLIBROS = 0 A 10 LIBROS: Satisfactorio o avanzado (10.0/3.0)
|   |   |   |   |   |   |   |   |   |   FAMI_NUMLIBROS = MAS DE 100 LIBROS: Minimo o insuficiente (0.0)
|   |   |   |   |   |   |   |   FAMI_EDUCACIONPADRE = Postgrado: Satisfactorio o avanzado (6.0/1.0)
|   |   |   |   |   |   |   COLE_DEPTO_UBICACION = CORDOBA: Satisfactorio o avanzado (884.0/212.0)
|   |   |   |   |   |   |   COLE_DEPTO_UBICACION = ATLANTICO
|   |   |   |   |   |   |   |   FAMI_TIENESERVICIOTV = Si
|   |   |   |   |   |   |   |   |   FAMI_NUMLIBROS = 11 A 25 LIBROS
|   |   |   |   |   |   |   |   |   |   FAMI_EDUCACIONPADRE = Primaria
|   |   |   |   |   |   |   |   |   |   |   FAMI_TIENECOMPUTADOR = No
|   |   |   |   |   |   |   |   |   |   |   |   ESTU_DEDICACIONINTERNET = Entre 1 y 3 horas: Minimo o insuficiente (4.0)
|   |   |   |   |   |   |   |   |   |   |   |   ESTU_DEDICACIONINTERNET = Hasta 1 hora
|   |   |   |   |   |   |   |   |   |   |   |   |   FAMI_COMECARNEPESCADOHUEVO = 1 o 2 veces por semana: Minimo o insuficiente (3.0/1.0)
|   |   |   |   |   |   |   |   |   |   |   |   |   FAMI_COMECARNEPESCADOHUEVO = 3 a 5 veces por semana: Minimo o insuficiente (3.0)
|   |   |   |   |   |   |   |   |   |   |   |   |   FAMI_COMECARNEPESCADOHUEVO = Todos o casi todos los dias: Satisfactorio o avanzado (7.0/1.0)
|   |   |   |   |   |   |   |   |   |   |   |   |   FAMI_COMECARNEPESCADOHUEVO = Nunca o rara vez comemos eso: Satisfactorio o avanzado (0.0)
|   |   |   |   |   |   |   |   |   |   |   |   ESTU_DEDICACIONINTERNET = Mas de 3 horas: Minimo o insuficiente (2.0)
|   |   |   |   |   |   |   |   |   |   |   |   ESTU_DEDICACIONINTERNET = No Navega Internet: Minimo o insuficiente (0.0)
|   |   |   |   |   |   |   |   |   |   |   FAMI_TIENECOMPUTADOR = Si: Satisfactorio o avanzado (7.0/1.0)
|   |   |   |   |   |   |   |   |   |   FAMI_EDUCACIONPADRE = Profesional: Satisfactorio o avanzado (1.0)
|   |   |   |   |   |   |   |   |   |   FAMI_EDUCACIONPADRE = Bachillerato
|   |   |   |   |   |   |   |   |   |   |   FAMI_PERSONASHOGAR = 3 a 4: Minimo o insuficiente (22.0/8.0)
|   |   |   |   |   |   |   |   |   |   |   FAMI_PERSONASHOGAR = 5 a 6: Minimo o insuficiente (20.0/9.0)
|   |   |   |   |   |   |   |   |   |   |   FAMI_PERSONASHOGAR = 7 o mas: Satisfactorio o avanzado (11.0/2.0)
|   |   |   |   |   |   |   |   |   |   |   FAMI_PERSONASHOGAR = 1 a 2: Minimo o insuficiente (0.0)
|   |   |   |   |   |   |   |   |   |   FAMI_EDUCACIONPADRE = No aplica: Minimo o insuficiente (24.0/10.0)
|   |   |   |   |   |   |   |   |   |   FAMI_EDUCACIONPADRE = Tecnica o tecnologica
|   |   |   |   |   |   |   |   |   |   |   FAMI_PERSONASHOGAR = 3 a 4: Satisfactorio o avanzado (10.0/2.0)
|   |   |   |   |   |   |   |   |   |   |   FAMI_PERSONASHOGAR = 5 a 6
|   |   |   |   |   |   |   |   |   |   |   |   FAMI_TIENECOMPUTADOR = No: Minimo o insuficiente (5.0/1.0)
|   |   |   |   |   |   |   |   |   |   |   |   FAMI_TIENECOMPUTADOR = Si: Satisfactorio o avanzado (2.0)
|   |   |   |   |   |   |   |   |   |   |   FAMI_PERSONASHOGAR = 7 o mas: Minimo o insuficiente (1.0)
|   |   |   |   |   |   |   |   |   |   |   FAMI_PERSONASHOGAR = 1 a 2: Satisfactorio o avanzado (1.0)
|   |   |   |   |   |   |   |   |   |   FAMI_EDUCACIONPADRE = Postgrado: Satisfactorio o avanzado (0.0)
|   |   |   |   |   |   |   |   |   FAMI_NUMLIBROS = 26 A 100 LIBROS: Satisfactorio o avanzado (85.0/22.0)
|   |   |   |   |   |   |   |   |   FAMI_NUMLIBROS = 0 A 10 LIBROS
|   |   |   |   |   |   |   |   |   |   FAMI_COMECARNEPESCADOHUEVO = 1 o 2 veces por semana: Minimo o insuficiente (33.0/14.0)
|   |   |   |   |   |   |   |   |   |   FAMI_COMECARNEPESCADOHUEVO = 3 a 5 veces por semana
|   |   |   |   |   |   |   |   |   |   |   FAMI_EDUCACIONPADRE = Primaria
|   |   |   |   |   |   |   |   |   |   |   |   FAMI_PERSONASHOGAR = 3 a 4: Minimo o insuficiente (2.0/1.0)
|   |   |   |   |   |   |   |   |   |   |   |   FAMI_PERSONASHOGAR = 5 a 6: Minimo o insuficiente (5.0)
|   |   |   |   |   |   |   |   |   |   |   |   FAMI_PERSONASHOGAR = 7 o mas: Satisfactorio o avanzado (4.0)
|   |   |   |   |   |   |   |   |   |   |   |   FAMI_PERSONASHOGAR = 1 a 2: Minimo o insuficiente (0.0)
|   |   |   |   |   |   |   |   |   |   |   FAMI_EDUCACIONPADRE = Profesional: Minimo o insuficiente (2.0/1.0)
|   |   |   |   |   |   |   |   |   |   |   FAMI_EDUCACIONPADRE = Bachillerato: Satisfactorio o avanzado (31.0/14.0)
|   |   |   |   |   |   |   |   |   |   |   FAMI_EDUCACIONPADRE = No aplica: Minimo o insuficiente (12.0/2.0)
|   |   |   |   |   |   |   |   |   |   |   FAMI_EDUCACIONPADRE = Tecnica o tecnologica: Minimo o insuficiente (2.0)
|   |   |   |   |   |   |   |   |   |   |   FAMI_EDUCACIONPADRE = Postgrado: Minimo o insuficiente (0.0)
|   |   |   |   |   |   |   |   |   |   FAMI_COMECARNEPESCADOHUEVO = Todos o casi todos los dias
|   |   |   |   |   |   |   |   |   |   |   ESTU_DEDICACIONINTERNET = Entre 1 y 3 horas: Minimo o insuficiente (17.0/8.0)
|   |   |   |   |   |   |   |   |   |   |   ESTU_DEDICACIONINTERNET = Hasta 1 hora
|   |   |   |   |   |   |   |   |   |   |   |   FAMI_PERSONASHOGAR = 3 a 4: Satisfactorio o avanzado (15.0/6.0)
|   |   |   |   |   |   |   |   |   |   |   |   FAMI_PERSONASHOGAR = 5 a 6: Minimo o insuficiente (8.0/1.0)
|   |   |   |   |   |   |   |   |   |   |   |   FAMI_PERSONASHOGAR = 7 o mas: Minimo o insuficiente (3.0/1.0)
|   |   |   |   |   |   |   |   |   |   |   |   FAMI_PERSONASHOGAR = 1 a 2: Minimo o insuficiente (0.0)
|   |   |   |   |   |   |   |   |   |   |   ESTU_DEDICACIONINTERNET = Mas de 3 horas: Satisfactorio o avanzado (12.0/2.0)
|   |   |   |   |   |   |   |   |   |   |   ESTU_DEDICACIONINTERNET = No Navega Internet: Satisfactorio o avanzado (0.0)
|   |   |   |   |   |   |   |   |   |   FAMI_COMECARNEPESCADOHUEVO = Nunca o rara vez comemos eso: Minimo o insuficiente (4.0)
|   |   |   |   |   |   |   |   |   FAMI_NUMLIBROS = MAS DE 100 LIBROS: Satisfactorio o avanzado (6.0/1.0)
|   |   |   |   |   |   |   |   FAMI_TIENESERVICIOTV = No: Satisfactorio o avanzado (310.0/98.0)
|   |   |   |   |   |   |   COLE_DEPTO_UBICACION = MAGDALENA
|   |   |   |   |   |   |   |   FAMI_EDUCACIONPADRE = Primaria
|   |   |   |   |   |   |   |   |   FAMI_COMECARNEPESCADOHUEVO = 1 o 2 veces por semana
|   |   |   |   |   |   |   |   |   |   FAMI_NUMLIBROS = 11 A 25 LIBROS: Satisfactorio o avanzado (7.0/1.0)
|   |   |   |   |   |   |   |   |   |   FAMI_NUMLIBROS = 26 A 100 LIBROS: Minimo o insuficiente (4.0/1.0)
|   |   |   |   |   |   |   |   |   |   FAMI_NUMLIBROS = 0 A 10 LIBROS
|   |   |   |   |   |   |   |   |   |   |   FAMI_PERSONASHOGAR = 3 a 4: Satisfactorio o avanzado (10.0/1.0)
|   |   |   |   |   |   |   |   |   |   |   FAMI_PERSONASHOGAR = 5 a 6: Minimo o insuficiente (3.0)
|   |   |   |   |   |   |   |   |   |   |   FAMI_PERSONASHOGAR = 7 o mas: Minimo o insuficiente (2.0/1.0)
|   |   |   |   |   |   |   |   |   |   |   FAMI_PERSONASHOGAR = 1 a 2: Satisfactorio o avanzado (0.0)
|   |   |   |   |   |   |   |   |   |   FAMI_NUMLIBROS = MAS DE 100 LIBROS: Satisfactorio o avanzado (0.0)
|   |   |   |   |   |   |   |   |   FAMI_COMECARNEPESCADOHUEVO = 3 a 5 veces por semana
|   |   |   |   |   |   |   |   |   |   FAMI_TIENESERVICIOTV = Si
|   |   |   |   |   |   |   |   |   |   |   FAMI_TIENECOMPUTADOR = No: Satisfactorio o avanzado (9.0/3.0)
|   |   |   |   |   |   |   |   |   |   |   FAMI_TIENECOMPUTADOR = Si: Minimo o insuficiente (5.0/1.0)
|   |   |   |   |   |   |   |   |   |   FAMI_TIENESERVICIOTV = No
|   |   |   |   |   |   |   |   |   |   |   FAMI_TIENECOMPUTADOR = No: Minimo o insuficiente (6.0)
|   |   |   |   |   |   |   |   |   |   |   FAMI_TIENECOMPUTADOR = Si: Satisfactorio o avanzado (3.0/1.0)
|   |   |   |   |   |   |   |   |   FAMI_COMECARNEPESCADOHUEVO = Todos o casi todos los dias: Minimo o insuficiente (16.0/2.0)
|   |   |   |   |   |   |   |   |   FAMI_COMECARNEPESCADOHUEVO = Nunca o rara vez comemos eso: Minimo o insuficiente (3.0)
|   |   |   |   |   |   |   |   FAMI_EDUCACIONPADRE = Profesional
|   |   |   |   |   |   |   |   |   FAMI_TIENECOMPUTADOR = No
|   |   |   |   |   |   |   |   |   |   FAMI_NUMLIBROS = 11 A 25 LIBROS: Satisfactorio o avanzado (1.0)
|   |   |   |   |   |   |   |   |   |   FAMI_NUMLIBROS = 26 A 100 LIBROS: Satisfactorio o avanzado (6.0)
|   |   |   |   |   |   |   |   |   |   FAMI_NUMLIBROS = 0 A 10 LIBROS: Minimo o insuficiente (5.0)
|   |   |   |   |   |   |   |   |   |   FAMI_NUMLIBROS = MAS DE 100 LIBROS: Minimo o insuficiente (1.0)
|   |   |   |   |   |   |   |   |   FAMI_TIENECOMPUTADOR = Si: Satisfactorio o avanzado (9.0)
|   |   |   |   |   |   |   |   FAMI_EDUCACIONPADRE = Bachillerato
|   |   |   |   |   |   |   |   |   FAMI_NUMLIBROS = 11 A 25 LIBROS
|   |   |   |   |   |   |   |   |   |   FAMI_TIENESERVICIOTV = Si
|   |   |   |   |   |   |   |   |   |   |   FAMI_PERSONASHOGAR = 3 a 4: Satisfactorio o avanzado (9.0/3.0)
|   |   |   |   |   |   |   |   |   |   |   FAMI_PERSONASHOGAR = 5 a 6: Minimo o insuficiente (16.0/6.0)
|   |   |   |   |   |   |   |   |   |   |   FAMI_PERSONASHOGAR = 7 o mas: Minimo o insuficiente (1.0)
|   |   |   |   |   |   |   |   |   |   |   FAMI_PERSONASHOGAR = 1 a 2: Minimo o insuficiente (1.0)
|   |   |   |   |   |   |   |   |   |   FAMI_TIENESERVICIOTV = No: Satisfactorio o avanzado (15.0/3.0)
|   |   |   |   |   |   |   |   |   FAMI_NUMLIBROS = 26 A 100 LIBROS
|   |   |   |   |   |   |   |   |   |   FAMI_TIENESERVICIOTV = Si: Minimo o insuficiente (13.0/4.0)
|   |   |   |   |   |   |   |   |   |   FAMI_TIENESERVICIOTV = No: Satisfactorio o avanzado (14.0/4.0)
|   |   |   |   |   |   |   |   |   FAMI_NUMLIBROS = 0 A 10 LIBROS: Minimo o insuficiente (72.0/21.0)
|   |   |   |   |   |   |   |   |   FAMI_NUMLIBROS = MAS DE 100 LIBROS: Minimo o insuficiente (2.0)
|   |   |   |   |   |   |   |   FAMI_EDUCACIONPADRE = No aplica: Minimo o insuficiente (64.0/15.0)
|   |   |   |   |   |   |   |   FAMI_EDUCACIONPADRE = Tecnica o tecnologica
|   |   |   |   |   |   |   |   |   FAMI_NUMLIBROS = 11 A 25 LIBROS: Satisfactorio o avanzado (7.0/2.0)
|   |   |   |   |   |   |   |   |   FAMI_NUMLIBROS = 26 A 100 LIBROS: Satisfactorio o avanzado (10.0/1.0)
|   |   |   |   |   |   |   |   |   FAMI_NUMLIBROS = 0 A 10 LIBROS: Minimo o insuficiente (6.0/1.0)
|   |   |   |   |   |   |   |   |   FAMI_NUMLIBROS = MAS DE 100 LIBROS: Satisfactorio o avanzado (1.0)
|   |   |   |   |   |   |   |   FAMI_EDUCACIONPADRE = Postgrado: Minimo o insuficiente (0.0)
|   |   |   |   |   |   |   COLE_DEPTO_UBICACION = SUCRE: Satisfactorio o avanzado (476.0/140.0)
|   |   |   |   |   |   |   COLE_DEPTO_UBICACION = CESAR
|   |   |   |   |   |   |   |   FAMI_EDUCACIONPADRE = Primaria
|   |   |   |   |   |   |   |   |   FAMI_PERSONASHOGAR = 3 a 4
|   |   |   |   |   |   |   |   |   |   FAMI_TIENECOMPUTADOR = No: Satisfactorio o avanzado (28.0/9.0)
|   |   |   |   |   |   |   |   |   |   FAMI_TIENECOMPUTADOR = Si
|   |   |   |   |   |   |   |   |   |   |   FAMI_TIENESERVICIOTV = Si: Minimo o insuficiente (4.0)
|   |   |   |   |   |   |   |   |   |   |   FAMI_TIENESERVICIOTV = No: Satisfactorio o avanzado (3.0/1.0)
|   |   |   |   |   |   |   |   |   FAMI_PERSONASHOGAR = 5 a 6: Minimo o insuficiente (42.0/16.0)
|   |   |   |   |   |   |   |   |   FAMI_PERSONASHOGAR = 7 o mas
|   |   |   |   |   |   |   |   |   |   FAMI_TIENESERVICIOTV = Si: Satisfactorio o avanzado (9.0/2.0)
|   |   |   |   |   |   |   |   |   |   FAMI_TIENESERVICIOTV = No: Minimo o insuficiente (4.0)
|   |   |   |   |   |   |   |   |   FAMI_PERSONASHOGAR = 1 a 2: Minimo o insuficiente (1.0)
|   |   |   |   |   |   |   |   FAMI_EDUCACIONPADRE = Profesional
|   |   |   |   |   |   |   |   |   FAMI_TIENECOMPUTADOR = No
|   |   |   |   |   |   |   |   |   |   FAMI_PERSONASHOGAR = 3 a 4: Satisfactorio o avanzado (8.0/1.0)
|   |   |   |   |   |   |   |   |   |   FAMI_PERSONASHOGAR = 5 a 6: Minimo o insuficiente (4.0/1.0)
|   |   |   |   |   |   |   |   |   |   FAMI_PERSONASHOGAR = 7 o mas: Satisfactorio o avanzado (0.0)
|   |   |   |   |   |   |   |   |   |   FAMI_PERSONASHOGAR = 1 a 2: Minimo o insuficiente (2.0)
|   |   |   |   |   |   |   |   |   FAMI_TIENECOMPUTADOR = Si: Satisfactorio o avanzado (8.0)
|   |   |   |   |   |   |   |   FAMI_EDUCACIONPADRE = Bachillerato
|   |   |   |   |   |   |   |   |   FAMI_PERSONASHOGAR = 3 a 4
|   |   |   |   |   |   |   |   |   |   FAMI_COMECARNEPESCADOHUEVO = 1 o 2 veces por semana
|   |   |   |   |   |   |   |   |   |   |   ESTU_DEDICACIONINTERNET = Entre 1 y 3 horas: Satisfactorio o avanzado (5.0/1.0)
|   |   |   |   |   |   |   |   |   |   |   ESTU_DEDICACIONINTERNET = Hasta 1 hora
|   |   |   |   |   |   |   |   |   |   |   |   FAMI_NUMLIBROS = 11 A 25 LIBROS
|   |   |   |   |   |   |   |   |   |   |   |   |   FAMI_TIENESERVICIOTV = Si: Minimo o insuficiente (3.0/1.0)
|   |   |   |   |   |   |   |   |   |   |   |   |   FAMI_TIENESERVICIOTV = No: Satisfactorio o avanzado (3.0)
|   |   |   |   |   |   |   |   |   |   |   |   FAMI_NUMLIBROS = 26 A 100 LIBROS: Minimo o insuficiente (1.0)
|   |   |   |   |   |   |   |   |   |   |   |   FAMI_NUMLIBROS = 0 A 10 LIBROS: Minimo o insuficiente (11.0/2.0)
|   |   |   |   |   |   |   |   |   |   |   |   FAMI_NUMLIBROS = MAS DE 100 LIBROS: Minimo o insuficiente (0.0)
|   |   |   |   |   |   |   |   |   |   |   ESTU_DEDICACIONINTERNET = Mas de 3 horas: Minimo o insuficiente (0.0)
|   |   |   |   |   |   |   |   |   |   |   ESTU_DEDICACIONINTERNET = No Navega Internet: Minimo o insuficiente (2.0/1.0)
|   |   |   |   |   |   |   |   |   |   FAMI_COMECARNEPESCADOHUEVO = 3 a 5 veces por semana
|   |   |   |   |   |   |   |   |   |   |   ESTU_DEDICACIONINTERNET = Entre 1 y 3 horas: Minimo o insuficiente (5.0)
|   |   |   |   |   |   |   |   |   |   |   ESTU_DEDICACIONINTERNET = Hasta 1 hora
|   |   |   |   |   |   |   |   |   |   |   |   FAMI_NUMLIBROS = 11 A 25 LIBROS: Minimo o insuficiente (6.0/2.0)
|   |   |   |   |   |   |   |   |   |   |   |   FAMI_NUMLIBROS = 26 A 100 LIBROS: Satisfactorio o avanzado (0.0)
|   |   |   |   |   |   |   |   |   |   |   |   FAMI_NUMLIBROS = 0 A 10 LIBROS: Satisfactorio o avanzado (13.0/4.0)
|   |   |   |   |   |   |   |   |   |   |   |   FAMI_NUMLIBROS = MAS DE 100 LIBROS: Satisfactorio o avanzado (0.0)
|   |   |   |   |   |   |   |   |   |   |   ESTU_DEDICACIONINTERNET = Mas de 3 horas: Minimo o insuficiente (3.0/1.0)
|   |   |   |   |   |   |   |   |   |   |   ESTU_DEDICACIONINTERNET = No Navega Internet: Satisfactorio o avanzado (3.0)
|   |   |   |   |   |   |   |   |   |   FAMI_COMECARNEPESCADOHUEVO = Todos o casi todos los dias: Satisfactorio o avanzado (26.0/8.0)
|   |   |   |   |   |   |   |   |   |   FAMI_COMECARNEPESCADOHUEVO = Nunca o rara vez comemos eso: Satisfactorio o avanzado (3.0)
|   |   |   |   |   |   |   |   |   FAMI_PERSONASHOGAR = 5 a 6
|   |   |   |   |   |   |   |   |   |   FAMI_TIENECOMPUTADOR = No
|   |   |   |   |   |   |   |   |   |   |   FAMI_NUMLIBROS = 11 A 25 LIBROS: Satisfactorio o avanzado (16.0/6.0)
|   |   |   |   |   |   |   |   |   |   |   FAMI_NUMLIBROS = 26 A 100 LIBROS: Satisfactorio o avanzado (13.0/3.0)
|   |   |   |   |   |   |   |   |   |   |   FAMI_NUMLIBROS = 0 A 10 LIBROS: Minimo o insuficiente (26.0/10.0)
|   |   |   |   |   |   |   |   |   |   |   FAMI_NUMLIBROS = MAS DE 100 LIBROS: Satisfactorio o avanzado (2.0)
|   |   |   |   |   |   |   |   |   |   FAMI_TIENECOMPUTADOR = Si
|   |   |   |   |   |   |   |   |   |   |   FAMI_TIENESERVICIOTV = Si: Satisfactorio o avanzado (26.0/4.0)
|   |   |   |   |   |   |   |   |   |   |   FAMI_TIENESERVICIOTV = No: Minimo o insuficiente (2.0)
|   |   |   |   |   |   |   |   |   FAMI_PERSONASHOGAR = 7 o mas
|   |   |   |   |   |   |   |   |   |   FAMI_NUMLIBROS = 11 A 25 LIBROS: Minimo o insuficiente (3.0)
|   |   |   |   |   |   |   |   |   |   FAMI_NUMLIBROS = 26 A 100 LIBROS: Minimo o insuficiente (6.0/2.0)
|   |   |   |   |   |   |   |   |   |   FAMI_NUMLIBROS = 0 A 10 LIBROS
|   |   |   |   |   |   |   |   |   |   |   FAMI_TIENESERVICIOTV = Si: Satisfactorio o avanzado (7.0/2.0)
|   |   |   |   |   |   |   |   |   |   |   FAMI_TIENESERVICIOTV = No: Minimo o insuficiente (3.0)
|   |   |   |   |   |   |   |   |   |   FAMI_NUMLIBROS = MAS DE 100 LIBROS: Satisfactorio o avanzado (1.0)
|   |   |   |   |   |   |   |   |   FAMI_PERSONASHOGAR = 1 a 2: Minimo o insuficiente (7.0/2.0)
|   |   |   |   |   |   |   |   FAMI_EDUCACIONPADRE = No aplica
|   |   |   |   |   |   |   |   |   FAMI_NUMLIBROS = 11 A 25 LIBROS: Minimo o insuficiente (25.0/4.0)
|   |   |   |   |   |   |   |   |   FAMI_NUMLIBROS = 26 A 100 LIBROS
|   |   |   |   |   |   |   |   |   |   FAMI_TIENESERVICIOTV = Si
|   |   |   |   |   |   |   |   |   |   |   ESTU_DEDICACIONINTERNET = Entre 1 y 3 horas: Minimo o insuficiente (1.0)
|   |   |   |   |   |   |   |   |   |   |   ESTU_DEDICACIONINTERNET = Hasta 1 hora: Minimo o insuficiente (2.0)
|   |   |   |   |   |   |   |   |   |   |   ESTU_DEDICACIONINTERNET = Mas de 3 horas: Satisfactorio o avanzado (2.0)
|   |   |   |   |   |   |   |   |   |   |   ESTU_DEDICACIONINTERNET = No Navega Internet: Minimo o insuficiente (0.0)
|   |   |   |   |   |   |   |   |   |   FAMI_TIENESERVICIOTV = No: Satisfactorio o avanzado (5.0)
|   |   |   |   |   |   |   |   |   FAMI_NUMLIBROS = 0 A 10 LIBROS
|   |   |   |   |   |   |   |   |   |   FAMI_TIENESERVICIOTV = Si
|   |   |   |   |   |   |   |   |   |   |   ESTU_DEDICACIONINTERNET = Entre 1 y 3 horas: Satisfactorio o avanzado (8.0/2.0)
|   |   |   |   |   |   |   |   |   |   |   ESTU_DEDICACIONINTERNET = Hasta 1 hora: Minimo o insuficiente (16.0/5.0)
|   |   |   |   |   |   |   |   |   |   |   ESTU_DEDICACIONINTERNET = Mas de 3 horas: Minimo o insuficiente (5.0/1.0)
|   |   |   |   |   |   |   |   |   |   |   ESTU_DEDICACIONINTERNET = No Navega Internet: Minimo o insuficiente (3.0/1.0)
|   |   |   |   |   |   |   |   |   |   FAMI_TIENESERVICIOTV = No: Satisfactorio o avanzado (22.0/6.0)
|   |   |   |   |   |   |   |   |   FAMI_NUMLIBROS = MAS DE 100 LIBROS: Minimo o insuficiente (3.0)
|   |   |   |   |   |   |   |   FAMI_EDUCACIONPADRE = Tecnica o tecnologica
|   |   |   |   |   |   |   |   |   FAMI_COMECARNEPESCADOHUEVO = 1 o 2 veces por semana
|   |   |   |   |   |   |   |   |   |   FAMI_TIENECOMPUTADOR = No
|   |   |   |   |   |   |   |   |   |   |   FAMI_NUMLIBROS = 11 A 25 LIBROS: Satisfactorio o avanzado (5.0/1.0)
|   |   |   |   |   |   |   |   |   |   |   FAMI_NUMLIBROS = 26 A 100 LIBROS: Minimo o insuficiente (3.0/1.0)
|   |   |   |   |   |   |   |   |   |   |   FAMI_NUMLIBROS = 0 A 10 LIBROS: Minimo o insuficiente (1.0)
|   |   |   |   |   |   |   |   |   |   |   FAMI_NUMLIBROS = MAS DE 100 LIBROS: Satisfactorio o avanzado (0.0)
|   |   |   |   |   |   |   |   |   |   FAMI_TIENECOMPUTADOR = Si: Minimo o insuficiente (3.0)
|   |   |   |   |   |   |   |   |   FAMI_COMECARNEPESCADOHUEVO = 3 a 5 veces por semana: Satisfactorio o avanzado (23.0/3.0)
|   |   |   |   |   |   |   |   |   FAMI_COMECARNEPESCADOHUEVO = Todos o casi todos los dias: Satisfactorio o avanzado (15.0/4.0)
|   |   |   |   |   |   |   |   |   FAMI_COMECARNEPESCADOHUEVO = Nunca o rara vez comemos eso: Minimo o insuficiente (2.0)
|   |   |   |   |   |   |   |   FAMI_EDUCACIONPADRE = Postgrado: Satisfactorio o avanzado (0.0)
|   |   |   |   |   |   |   COLE_DEPTO_UBICACION = LA GUAJIRA
|   |   |   |   |   |   |   |   FAMI_EDUCACIONPADRE = Primaria
|   |   |   |   |   |   |   |   |   FAMI_PERSONASHOGAR = 3 a 4: Satisfactorio o avanzado (11.0/4.0)
|   |   |   |   |   |   |   |   |   FAMI_PERSONASHOGAR = 5 a 6
|   |   |   |   |   |   |   |   |   |   FAMI_TIENESERVICIOTV = Si
|   |   |   |   |   |   |   |   |   |   |   FAMI_COMECARNEPESCADOHUEVO = 1 o 2 veces por semana: Minimo o insuficiente (6.0/2.0)
|   |   |   |   |   |   |   |   |   |   |   FAMI_COMECARNEPESCADOHUEVO = 3 a 5 veces por semana: Satisfactorio o avanzado (8.0/2.0)
|   |   |   |   |   |   |   |   |   |   |   FAMI_COMECARNEPESCADOHUEVO = Todos o casi todos los dias: Minimo o insuficiente (8.0/3.0)
|   |   |   |   |   |   |   |   |   |   |   FAMI_COMECARNEPESCADOHUEVO = Nunca o rara vez comemos eso: Minimo o insuficiente (0.0)
|   |   |   |   |   |   |   |   |   |   FAMI_TIENESERVICIOTV = No: Minimo o insuficiente (5.0)
|   |   |   |   |   |   |   |   |   FAMI_PERSONASHOGAR = 7 o mas: Minimo o insuficiente (6.0)
|   |   |   |   |   |   |   |   |   FAMI_PERSONASHOGAR = 1 a 2: Minimo o insuficiente (2.0)
|   |   |   |   |   |   |   |   FAMI_EDUCACIONPADRE = Profesional: Minimo o insuficiente (10.0/1.0)
|   |   |   |   |   |   |   |   FAMI_EDUCACIONPADRE = Bachillerato
|   |   |   |   |   |   |   |   |   FAMI_NUMLIBROS = 11 A 25 LIBROS
|   |   |   |   |   |   |   |   |   |   FAMI_PERSONASHOGAR = 3 a 4
|   |   |   |   |   |   |   |   |   |   |   ESTU_DEDICACIONINTERNET = Entre 1 y 3 horas: Minimo o insuficiente (2.0)
|   |   |   |   |   |   |   |   |   |   |   ESTU_DEDICACIONINTERNET = Hasta 1 hora: Minimo o insuficiente (3.0/1.0)
|   |   |   |   |   |   |   |   |   |   |   ESTU_DEDICACIONINTERNET = Mas de 3 horas: Minimo o insuficiente (0.0)
|   |   |   |   |   |   |   |   |   |   |   ESTU_DEDICACIONINTERNET = No Navega Internet: Satisfactorio o avanzado (2.0)
|   |   |   |   |   |   |   |   |   |   FAMI_PERSONASHOGAR = 5 a 6: Satisfactorio o avanzado (12.0/4.0)
|   |   |   |   |   |   |   |   |   |   FAMI_PERSONASHOGAR = 7 o mas: Minimo o insuficiente (2.0)
|   |   |   |   |   |   |   |   |   |   FAMI_PERSONASHOGAR = 1 a 2: Satisfactorio o avanzado (0.0)
|   |   |   |   |   |   |   |   |   FAMI_NUMLIBROS = 26 A 100 LIBROS: Satisfactorio o avanzado (17.0/4.0)
|   |   |   |   |   |   |   |   |   FAMI_NUMLIBROS = 0 A 10 LIBROS
|   |   |   |   |   |   |   |   |   |   FAMI_PERSONASHOGAR = 3 a 4
|   |   |   |   |   |   |   |   |   |   |   FAMI_TIENESERVICIOTV = Si: Minimo o insuficiente (8.0/1.0)
|   |   |   |   |   |   |   |   |   |   |   FAMI_TIENESERVICIOTV = No: Satisfactorio o avanzado (3.0/1.0)
|   |   |   |   |   |   |   |   |   |   FAMI_PERSONASHOGAR = 5 a 6: Satisfactorio o avanzado (13.0/3.0)
|   |   |   |   |   |   |   |   |   |   FAMI_PERSONASHOGAR = 7 o mas: Minimo o insuficiente (3.0)
|   |   |   |   |   |   |   |   |   |   FAMI_PERSONASHOGAR = 1 a 2: Satisfactorio o avanzado (2.0)
|   |   |   |   |   |   |   |   |   FAMI_NUMLIBROS = MAS DE 100 LIBROS: Minimo o insuficiente (6.0)
|   |   |   |   |   |   |   |   FAMI_EDUCACIONPADRE = No aplica: Minimo o insuficiente (19.0/4.0)
|   |   |   |   |   |   |   |   FAMI_EDUCACIONPADRE = Tecnica o tecnologica
|   |   |   |   |   |   |   |   |   FAMI_COMECARNEPESCADOHUEVO = 1 o 2 veces por semana: Satisfactorio o avanzado (1.0)
|   |   |   |   |   |   |   |   |   FAMI_COMECARNEPESCADOHUEVO = 3 a 5 veces por semana: Satisfactorio o avanzado (8.0/1.0)
|   |   |   |   |   |   |   |   |   FAMI_COMECARNEPESCADOHUEVO = Todos o casi todos los dias: Minimo o insuficiente (4.0/1.0)
|   |   |   |   |   |   |   |   |   FAMI_COMECARNEPESCADOHUEVO = Nunca o rara vez comemos eso: Minimo o insuficiente (1.0)
|   |   |   |   |   |   |   |   FAMI_EDUCACIONPADRE = Postgrado: Minimo o insuficiente (1.0)
|   |   |   |   |   |   |   COLE_DEPTO_UBICACION = SAN ANDRES: Minimo o insuficiente (6.0/1.0)
|   |   |   |   |   |   FAMI_COMELECHEDERIVADOS = Todos o casi todos los dias
|   |   |   |   |   |   |   COLE_DEPTO_UBICACION = BOLIVAR
|   |   |   |   |   |   |   |   FAMI_COMECARNEPESCADOHUEVO = 1 o 2 veces por semana: Minimo o insuficiente (54.0/22.0)
|   |   |   |   |   |   |   |   FAMI_COMECARNEPESCADOHUEVO = 3 a 5 veces por semana
|   |   |   |   |   |   |   |   |   FAMI_NUMLIBROS = 11 A 25 LIBROS: Satisfactorio o avanzado (25.0/9.0)
|   |   |   |   |   |   |   |   |   FAMI_NUMLIBROS = 26 A 100 LIBROS
|   |   |   |   |   |   |   |   |   |   FAMI_TIENESERVICIOTV = Si: Minimo o insuficiente (11.0/3.0)
|   |   |   |   |   |   |   |   |   |   FAMI_TIENESERVICIOTV = No: Satisfactorio o avanzado (12.0)
|   |   |   |   |   |   |   |   |   FAMI_NUMLIBROS = 0 A 10 LIBROS
|   |   |   |   |   |   |   |   |   |   FAMI_EDUCACIONPADRE = Primaria
|   |   |   |   |   |   |   |   |   |   |   FAMI_PERSONASHOGAR = 3 a 4: Satisfactorio o avanzado (3.0/1.0)
|   |   |   |   |   |   |   |   |   |   |   FAMI_PERSONASHOGAR = 5 a 6: Minimo o insuficiente (3.0)
|   |   |   |   |   |   |   |   |   |   |   FAMI_PERSONASHOGAR = 7 o mas: Minimo o insuficiente (0.0)
|   |   |   |   |   |   |   |   |   |   |   FAMI_PERSONASHOGAR = 1 a 2: Minimo o insuficiente (0.0)
|   |   |   |   |   |   |   |   |   |   FAMI_EDUCACIONPADRE = Profesional: Satisfactorio o avanzado (3.0)
|   |   |   |   |   |   |   |   |   |   FAMI_EDUCACIONPADRE = Bachillerato
|   |   |   |   |   |   |   |   |   |   |   ESTU_DEDICACIONINTERNET = Entre 1 y 3 horas: Satisfactorio o avanzado (6.0/2.0)
|   |   |   |   |   |   |   |   |   |   |   ESTU_DEDICACIONINTERNET = Hasta 1 hora: Minimo o insuficiente (5.0)
|   |   |   |   |   |   |   |   |   |   |   ESTU_DEDICACIONINTERNET = Mas de 3 horas: Satisfactorio o avanzado (3.0/1.0)
|   |   |   |   |   |   |   |   |   |   |   ESTU_DEDICACIONINTERNET = No Navega Internet: Minimo o insuficiente (1.0)
|   |   |   |   |   |   |   |   |   |   FAMI_EDUCACIONPADRE = No aplica: Minimo o insuficiente (6.0)
|   |   |   |   |   |   |   |   |   |   FAMI_EDUCACIONPADRE = Tecnica o tecnologica: Satisfactorio o avanzado (1.0)
|   |   |   |   |   |   |   |   |   |   FAMI_EDUCACIONPADRE = Postgrado: Minimo o insuficiente (0.0)
|   |   |   |   |   |   |   |   |   FAMI_NUMLIBROS = MAS DE 100 LIBROS
|   |   |   |   |   |   |   |   |   |   ESTU_DEDICACIONINTERNET = Entre 1 y 3 horas: Satisfactorio o avanzado (2.0)
|   |   |   |   |   |   |   |   |   |   ESTU_DEDICACIONINTERNET = Hasta 1 hora: Minimo o insuficiente (1.0)
|   |   |   |   |   |   |   |   |   |   ESTU_DEDICACIONINTERNET = Mas de 3 horas: Minimo o insuficiente (2.0)
|   |   |   |   |   |   |   |   |   |   ESTU_DEDICACIONINTERNET = No Navega Internet: Minimo o insuficiente (0.0)
|   |   |   |   |   |   |   |   FAMI_COMECARNEPESCADOHUEVO = Todos o casi todos los dias
|   |   |   |   |   |   |   |   |   FAMI_EDUCACIONPADRE = Primaria: Minimo o insuficiente (47.0/14.0)
|   |   |   |   |   |   |   |   |   FAMI_EDUCACIONPADRE = Profesional
|   |   |   |   |   |   |   |   |   |   FAMI_NUMLIBROS = 11 A 25 LIBROS: Satisfactorio o avanzado (2.0)
|   |   |   |   |   |   |   |   |   |   FAMI_NUMLIBROS = 26 A 100 LIBROS: Satisfactorio o avanzado (5.0/1.0)
|   |   |   |   |   |   |   |   |   |   FAMI_NUMLIBROS = 0 A 10 LIBROS: Minimo o insuficiente (2.0)
|   |   |   |   |   |   |   |   |   |   FAMI_NUMLIBROS = MAS DE 100 LIBROS: Minimo o insuficiente (1.0)
|   |   |   |   |   |   |   |   |   FAMI_EDUCACIONPADRE = Bachillerato: Minimo o insuficiente (85.0/32.0)
|   |   |   |   |   |   |   |   |   FAMI_EDUCACIONPADRE = No aplica
|   |   |   |   |   |   |   |   |   |   FAMI_PERSONASHOGAR = 3 a 4: Satisfactorio o avanzado (11.0/3.0)
|   |   |   |   |   |   |   |   |   |   FAMI_PERSONASHOGAR = 5 a 6
|   |   |   |   |   |   |   |   |   |   |   ESTU_DEDICACIONINTERNET = Entre 1 y 3 horas
|   |   |   |   |   |   |   |   |   |   |   |   FAMI_TIENESERVICIOTV = Si: Minimo o insuficiente (4.0)
|   |   |   |   |   |   |   |   |   |   |   |   FAMI_TIENESERVICIOTV = No: Satisfactorio o avanzado (3.0/1.0)
|   |   |   |   |   |   |   |   |   |   |   ESTU_DEDICACIONINTERNET = Hasta 1 hora: Satisfactorio o avanzado (8.0/2.0)
|   |   |   |   |   |   |   |   |   |   |   ESTU_DEDICACIONINTERNET = Mas de 3 horas: Minimo o insuficiente (2.0)
|   |   |   |   |   |   |   |   |   |   |   ESTU_DEDICACIONINTERNET = No Navega Internet: Minimo o insuficiente (0.0)
|   |   |   |   |   |   |   |   |   |   FAMI_PERSONASHOGAR = 7 o mas: Minimo o insuficiente (4.0/1.0)
|   |   |   |   |   |   |   |   |   |   FAMI_PERSONASHOGAR = 1 a 2: Minimo o insuficiente (1.0)
|   |   |   |   |   |   |   |   |   FAMI_EDUCACIONPADRE = Tecnica o tecnologica
|   |   |   |   |   |   |   |   |   |   FAMI_TIENECOMPUTADOR = No
|   |   |   |   |   |   |   |   |   |   |   FAMI_TIENESERVICIOTV = Si
|   |   |   |   |   |   |   |   |   |   |   |   FAMI_PERSONASHOGAR = 3 a 4: Minimo o insuficiente (4.0)
|   |   |   |   |   |   |   |   |   |   |   |   FAMI_PERSONASHOGAR = 5 a 6: Satisfactorio o avanzado (3.0/1.0)
|   |   |   |   |   |   |   |   |   |   |   |   FAMI_PERSONASHOGAR = 7 o mas: Satisfactorio o avanzado (1.0)
|   |   |   |   |   |   |   |   |   |   |   |   FAMI_PERSONASHOGAR = 1 a 2: Minimo o insuficiente (0.0)
|   |   |   |   |   |   |   |   |   |   |   FAMI_TIENESERVICIOTV = No: Satisfactorio o avanzado (2.0)
|   |   |   |   |   |   |   |   |   |   FAMI_TIENECOMPUTADOR = Si: Satisfactorio o avanzado (8.0)
|   |   |   |   |   |   |   |   |   FAMI_EDUCACIONPADRE = Postgrado: Minimo o insuficiente (0.0)
|   |   |   |   |   |   |   |   FAMI_COMECARNEPESCADOHUEVO = Nunca o rara vez comemos eso: Minimo o insuficiente (7.0/1.0)
|   |   |   |   |   |   |   COLE_DEPTO_UBICACION = CORDOBA
|   |   |   |   |   |   |   |   FAMI_PERSONASHOGAR = 3 a 4: Satisfactorio o avanzado (151.0/49.0)
|   |   |   |   |   |   |   |   FAMI_PERSONASHOGAR = 5 a 6
|   |   |   |   |   |   |   |   |   FAMI_EDUCACIONPADRE = Primaria
|   |   |   |   |   |   |   |   |   |   FAMI_TIENESERVICIOTV = Si: Minimo o insuficiente (14.0/2.0)
|   |   |   |   |   |   |   |   |   |   FAMI_TIENESERVICIOTV = No: Satisfactorio o avanzado (9.0)
|   |   |   |   |   |   |   |   |   FAMI_EDUCACIONPADRE = Profesional
|   |   |   |   |   |   |   |   |   |   ESTU_DEDICACIONINTERNET = Entre 1 y 3 horas: Minimo o insuficiente (4.0/1.0)
|   |   |   |   |   |   |   |   |   |   ESTU_DEDICACIONINTERNET = Hasta 1 hora: Satisfactorio o avanzado (2.0)
|   |   |   |   |   |   |   |   |   |   ESTU_DEDICACIONINTERNET = Mas de 3 horas: Satisfactorio o avanzado (2.0)
|   |   |   |   |   |   |   |   |   |   ESTU_DEDICACIONINTERNET = No Navega Internet: Satisfactorio o avanzado (0.0)
|   |   |   |   |   |   |   |   |   FAMI_EDUCACIONPADRE = Bachillerato
|   |   |   |   |   |   |   |   |   |   FAMI_TIENECOMPUTADOR = No
|   |   |   |   |   |   |   |   |   |   |   FAMI_NUMLIBROS = 11 A 25 LIBROS
|   |   |   |   |   |   |   |   |   |   |   |   ESTU_DEDICACIONINTERNET = Entre 1 y 3 horas: Minimo o insuficiente (4.0)
|   |   |   |   |   |   |   |   |   |   |   |   ESTU_DEDICACIONINTERNET = Hasta 1 hora
|   |   |   |   |   |   |   |   |   |   |   |   |   FAMI_TIENESERVICIOTV = Si: Satisfactorio o avanzado (4.0)
|   |   |   |   |   |   |   |   |   |   |   |   |   FAMI_TIENESERVICIOTV = No: Minimo o insuficiente (2.0)
|   |   |   |   |   |   |   |   |   |   |   |   ESTU_DEDICACIONINTERNET = Mas de 3 horas: Minimo o insuficiente (1.0)
|   |   |   |   |   |   |   |   |   |   |   |   ESTU_DEDICACIONINTERNET = No Navega Internet: Minimo o insuficiente (0.0)
|   |   |   |   |   |   |   |   |   |   |   FAMI_NUMLIBROS = 26 A 100 LIBROS: Satisfactorio o avanzado (18.0/5.0)
|   |   |   |   |   |   |   |   |   |   |   FAMI_NUMLIBROS = 0 A 10 LIBROS: Minimo o insuficiente (12.0/5.0)
|   |   |   |   |   |   |   |   |   |   |   FAMI_NUMLIBROS = MAS DE 100 LIBROS: Minimo o insuficiente (2.0)
|   |   |   |   |   |   |   |   |   |   FAMI_TIENECOMPUTADOR = Si: Satisfactorio o avanzado (16.0/4.0)
|   |   |   |   |   |   |   |   |   FAMI_EDUCACIONPADRE = No aplica: Minimo o insuficiente (11.0/3.0)
|   |   |   |   |   |   |   |   |   FAMI_EDUCACIONPADRE = Tecnica o tecnologica: Satisfactorio o avanzado (8.0/2.0)
|   |   |   |   |   |   |   |   |   FAMI_EDUCACIONPADRE = Postgrado: Minimo o insuficiente (3.0)
|   |   |   |   |   |   |   |   FAMI_PERSONASHOGAR = 7 o mas
|   |   |   |   |   |   |   |   |   FAMI_TIENECOMPUTADOR = No: Satisfactorio o avanzado (27.0/9.0)
|   |   |   |   |   |   |   |   |   FAMI_TIENECOMPUTADOR = Si: Minimo o insuficiente (10.0/3.0)
|   |   |   |   |   |   |   |   FAMI_PERSONASHOGAR = 1 a 2
|   |   |   |   |   |   |   |   |   FAMI_TIENECOMPUTADOR = No: Minimo o insuficiente (8.0)
|   |   |   |   |   |   |   |   |   FAMI_TIENECOMPUTADOR = Si: Satisfactorio o avanzado (2.0)
|   |   |   |   |   |   |   COLE_DEPTO_UBICACION = ATLANTICO
|   |   |   |   |   |   |   |   FAMI_COMECARNEPESCADOHUEVO = 1 o 2 veces por semana: Minimo o insuficiente (86.0/22.0)
|   |   |   |   |   |   |   |   FAMI_COMECARNEPESCADOHUEVO = 3 a 5 veces por semana
|   |   |   |   |   |   |   |   |   FAMI_PERSONASHOGAR = 3 a 4
|   |   |   |   |   |   |   |   |   |   FAMI_NUMLIBROS = 11 A 25 LIBROS: Minimo o insuficiente (17.0/8.0)
|   |   |   |   |   |   |   |   |   |   FAMI_NUMLIBROS = 26 A 100 LIBROS: Satisfactorio o avanzado (9.0/1.0)
|   |   |   |   |   |   |   |   |   |   FAMI_NUMLIBROS = 0 A 10 LIBROS: Minimo o insuficiente (22.0/8.0)
|   |   |   |   |   |   |   |   |   |   FAMI_NUMLIBROS = MAS DE 100 LIBROS: Minimo o insuficiente (2.0)
|   |   |   |   |   |   |   |   |   FAMI_PERSONASHOGAR = 5 a 6
|   |   |   |   |   |   |   |   |   |   FAMI_NUMLIBROS = 11 A 25 LIBROS
|   |   |   |   |   |   |   |   |   |   |   FAMI_TIENECOMPUTADOR = No: Minimo o insuficiente (15.0/2.0)
|   |   |   |   |   |   |   |   |   |   |   FAMI_TIENECOMPUTADOR = Si: Satisfactorio o avanzado (11.0/4.0)
|   |   |   |   |   |   |   |   |   |   FAMI_NUMLIBROS = 26 A 100 LIBROS: Satisfactorio o avanzado (21.0/4.0)
|   |   |   |   |   |   |   |   |   |   FAMI_NUMLIBROS = 0 A 10 LIBROS: Satisfactorio o avanzado (28.0/8.0)
|   |   |   |   |   |   |   |   |   |   FAMI_NUMLIBROS = MAS DE 100 LIBROS: Minimo o insuficiente (7.0/2.0)
|   |   |   |   |   |   |   |   |   FAMI_PERSONASHOGAR = 7 o mas: Minimo o insuficiente (16.0/3.0)
|   |   |   |   |   |   |   |   |   FAMI_PERSONASHOGAR = 1 a 2: Minimo o insuficiente (5.0)
|   |   |   |   |   |   |   |   FAMI_COMECARNEPESCADOHUEVO = Todos o casi todos los dias
|   |   |   |   |   |   |   |   |   FAMI_NUMLIBROS = 11 A 25 LIBROS
|   |   |   |   |   |   |   |   |   |   FAMI_EDUCACIONPADRE = Primaria
|   |   |   |   |   |   |   |   |   |   |   FAMI_PERSONASHOGAR = 3 a 4
|   |   |   |   |   |   |   |   |   |   |   |   FAMI_TIENESERVICIOTV = Si: Satisfactorio o avanzado (6.0/2.0)
|   |   |   |   |   |   |   |   |   |   |   |   FAMI_TIENESERVICIOTV = No: Minimo o insuficiente (2.0)
|   |   |   |   |   |   |   |   |   |   |   FAMI_PERSONASHOGAR = 5 a 6: Satisfactorio o avanzado (14.0/1.0)
|   |   |   |   |   |   |   |   |   |   |   FAMI_PERSONASHOGAR = 7 o mas: Minimo o insuficiente (8.0/1.0)
|   |   |   |   |   |   |   |   |   |   |   FAMI_PERSONASHOGAR = 1 a 2: Minimo o insuficiente (2.0/1.0)
|   |   |   |   |   |   |   |   |   |   FAMI_EDUCACIONPADRE = Profesional: Minimo o insuficiente (1.0)
|   |   |   |   |   |   |   |   |   |   FAMI_EDUCACIONPADRE = Bachillerato
|   |   |   |   |   |   |   |   |   |   |   ESTU_DEDICACIONINTERNET = Entre 1 y 3 horas: Minimo o insuficiente (5.0/2.0)
|   |   |   |   |   |   |   |   |   |   |   ESTU_DEDICACIONINTERNET = Hasta 1 hora: Satisfactorio o avanzado (23.0/10.0)
|   |   |   |   |   |   |   |   |   |   |   ESTU_DEDICACIONINTERNET = Mas de 3 horas
|   |   |   |   |   |   |   |   |   |   |   |   FAMI_TIENECOMPUTADOR = No: Minimo o insuficiente (4.0)
|   |   |   |   |   |   |   |   |   |   |   |   FAMI_TIENECOMPUTADOR = Si: Satisfactorio o avanzado (6.0/1.0)
|   |   |   |   |   |   |   |   |   |   |   ESTU_DEDICACIONINTERNET = No Navega Internet: Minimo o insuficiente (1.0)
|   |   |   |   |   |   |   |   |   |   FAMI_EDUCACIONPADRE = No aplica: Minimo o insuficiente (11.0/4.0)
|   |   |   |   |   |   |   |   |   |   FAMI_EDUCACIONPADRE = Tecnica o tecnologica
|   |   |   |   |   |   |   |   |   |   |   FAMI_TIENECOMPUTADOR = No: Satisfactorio o avanzado (6.0/1.0)
|   |   |   |   |   |   |   |   |   |   |   FAMI_TIENECOMPUTADOR = Si: Minimo o insuficiente (3.0/1.0)
|   |   |   |   |   |   |   |   |   |   FAMI_EDUCACIONPADRE = Postgrado: Satisfactorio o avanzado (0.0)
|   |   |   |   |   |   |   |   |   FAMI_NUMLIBROS = 26 A 100 LIBROS: Satisfactorio o avanzado (69.0/22.0)
|   |   |   |   |   |   |   |   |   FAMI_NUMLIBROS = 0 A 10 LIBROS
|   |   |   |   |   |   |   |   |   |   FAMI_EDUCACIONPADRE = Primaria
|   |   |   |   |   |   |   |   |   |   |   FAMI_TIENESERVICIOTV = Si: Minimo o insuficiente (17.0/5.0)
|   |   |   |   |   |   |   |   |   |   |   FAMI_TIENESERVICIOTV = No: Satisfactorio o avanzado (5.0/1.0)
|   |   |   |   |   |   |   |   |   |   FAMI_EDUCACIONPADRE = Profesional: Minimo o insuficiente (4.0)
|   |   |   |   |   |   |   |   |   |   FAMI_EDUCACIONPADRE = Bachillerato
|   |   |   |   |   |   |   |   |   |   |   FAMI_TIENECOMPUTADOR = No: Minimo o insuficiente (25.0/6.0)
|   |   |   |   |   |   |   |   |   |   |   FAMI_TIENECOMPUTADOR = Si
|   |   |   |   |   |   |   |   |   |   |   |   FAMI_TIENESERVICIOTV = Si
|   |   |   |   |   |   |   |   |   |   |   |   |   ESTU_DEDICACIONINTERNET = Entre 1 y 3 horas: Minimo o insuficiente (3.0/1.0)
|   |   |   |   |   |   |   |   |   |   |   |   |   ESTU_DEDICACIONINTERNET = Hasta 1 hora: Minimo o insuficiente (2.0)
|   |   |   |   |   |   |   |   |   |   |   |   |   ESTU_DEDICACIONINTERNET = Mas de 3 horas: Satisfactorio o avanzado (2.0)
|   |   |   |   |   |   |   |   |   |   |   |   |   ESTU_DEDICACIONINTERNET = No Navega Internet: Minimo o insuficiente (0.0)
|   |   |   |   |   |   |   |   |   |   |   |   FAMI_TIENESERVICIOTV = No: Satisfactorio o avanzado (4.0)
|   |   |   |   |   |   |   |   |   |   FAMI_EDUCACIONPADRE = No aplica
|   |   |   |   |   |   |   |   |   |   |   FAMI_TIENESERVICIOTV = Si
|   |   |   |   |   |   |   |   |   |   |   |   FAMI_TIENECOMPUTADOR = No
|   |   |   |   |   |   |   |   |   |   |   |   |   ESTU_DEDICACIONINTERNET = Entre 1 y 3 horas: Minimo o insuficiente (4.0/1.0)
|   |   |   |   |   |   |   |   |   |   |   |   |   ESTU_DEDICACIONINTERNET = Hasta 1 hora: Satisfactorio o avanzado (4.0/1.0)
|   |   |   |   |   |   |   |   |   |   |   |   |   ESTU_DEDICACIONINTERNET = Mas de 3 horas: Satisfactorio o avanzado (3.0)
|   |   |   |   |   |   |   |   |   |   |   |   |   ESTU_DEDICACIONINTERNET = No Navega Internet: Minimo o insuficiente (1.0)
|   |   |   |   |   |   |   |   |   |   |   |   FAMI_TIENECOMPUTADOR = Si: Minimo o insuficiente (6.0/1.0)
|   |   |   |   |   |   |   |   |   |   |   FAMI_TIENESERVICIOTV = No: Minimo o insuficiente (5.0)
|   |   |   |   |   |   |   |   |   |   FAMI_EDUCACIONPADRE = Tecnica o tecnologica: Satisfactorio o avanzado (9.0/1.0)
|   |   |   |   |   |   |   |   |   |   FAMI_EDUCACIONPADRE = Postgrado: Minimo o insuficiente (1.0)
|   |   |   |   |   |   |   |   |   FAMI_NUMLIBROS = MAS DE 100 LIBROS
|   |   |   |   |   |   |   |   |   |   FAMI_PERSONASHOGAR = 3 a 4: Minimo o insuficiente (1.0)
|   |   |   |   |   |   |   |   |   |   FAMI_PERSONASHOGAR = 5 a 6
|   |   |   |   |   |   |   |   |   |   |   FAMI_TIENESERVICIOTV = Si
|   |   |   |   |   |   |   |   |   |   |   |   ESTU_DEDICACIONINTERNET = Entre 1 y 3 horas: Minimo o insuficiente (2.0)
|   |   |   |   |   |   |   |   |   |   |   |   ESTU_DEDICACIONINTERNET = Hasta 1 hora: Minimo o insuficiente (1.0)
|   |   |   |   |   |   |   |   |   |   |   |   ESTU_DEDICACIONINTERNET = Mas de 3 horas: Satisfactorio o avanzado (4.0)
|   |   |   |   |   |   |   |   |   |   |   |   ESTU_DEDICACIONINTERNET = No Navega Internet: Satisfactorio o avanzado (0.0)
|   |   |   |   |   |   |   |   |   |   |   FAMI_TIENESERVICIOTV = No: Satisfactorio o avanzado (5.0)
|   |   |   |   |   |   |   |   |   |   FAMI_PERSONASHOGAR = 7 o mas: Minimo o insuficiente (6.0/1.0)
|   |   |   |   |   |   |   |   |   |   FAMI_PERSONASHOGAR = 1 a 2: Satisfactorio o avanzado (1.0)
|   |   |   |   |   |   |   |   FAMI_COMECARNEPESCADOHUEVO = Nunca o rara vez comemos eso: Minimo o insuficiente (13.0/1.0)
|   |   |   |   |   |   |   COLE_DEPTO_UBICACION = MAGDALENA: Minimo o insuficiente (173.0/39.0)
|   |   |   |   |   |   |   COLE_DEPTO_UBICACION = SUCRE
|   |   |   |   |   |   |   |   FAMI_TIENESERVICIOTV = Si
